{"learner":{"attributes":{"scikit_learn":"{\"_estimator_type\": \"ranker\"}"},"feature_names":["driver_points","driver_wins","driver_standings_pos","constructor_points","constructor_wins","constructor_standings_pos","weather_warm","weather_cold","weather_dry","weather_wet","weather_cloudy","circuit_id_adelaide","circuit_id_albert_park","circuit_id_americas","circuit_id_bahrain","circuit_id_baku","circuit_id_brands_hatch","circuit_id_buddh","circuit_id_catalunya","circuit_id_dallas","circuit_id_detroit","circuit_id_dijon","circuit_id_donington","circuit_id_estoril","circuit_id_fuji","circuit_id_galvez","circuit_id_hockenheimring","circuit_id_hungaroring","circuit_id_imola","circuit_id_indianapolis","circuit_id_interlagos","circuit_id_istanbul","circuit_id_jacarepagua","circuit_id_jeddah","circuit_id_jerez","circuit_id_kyalami","circuit_id_long_beach","circuit_id_losail","circuit_id_magny_cours","circuit_id_marina_bay","circuit_id_miami","circuit_id_monaco","circuit_id_monza","circuit_id_mugello","circuit_id_nurburgring","circuit_id_okayama","circuit_id_phoenix","circuit_id_portimao","circuit_id_red_bull_ring","circuit_id_ricard","circuit_id_rodriguez","circuit_id_sepang","circuit_id_shanghai","circuit_id_silverstone","circuit_id_sochi","circuit_id_spa","circuit_id_suzuka","circuit_id_valencia","circuit_id_villeneuve","circuit_id_yas_marina","circuit_id_yeongam","circuit_id_zandvoort","circuit_id_zolder","nationality_Unknown","constructor_ags","constructor_alfa","constructor_alphatauri","constructor_alpine","constructor_arrows","constructor_aston","constructor_ats","constructor_bar","constructor_benetton","constructor_brabham","constructor_brawn","constructor_caterham","constructor_coloni","constructor_dallara","constructor_euro","constructor_ferrari","constructor_fondmetal","constructor_footwork","constructor_force","constructor_forti","constructor_haas","constructor_honda","constructor_hrt","constructor_jaguar","constructor_jordan","constructor_lambo","constructor_larrousse","constructor_leyton","constructor_ligier","constructor_lola","constructor_lotus","constructor_march","constructor_marussia","constructor_mclaren","constructor_mercedes","constructor_mf1","constructor_minardi","constructor_moda","constructor_mrt","constructor_mrt-mercedes","constructor_onyx","constructor_osella","constructor_pacific","constructor_prost","constructor_racing","constructor_ram","constructor_rbr","constructor_red","constructor_renault","constructor_rial","constructor_sauber","constructor_scuderia","constructor_simtek","constructor_spirit","constructor_spyker","constructor_stewart","constructor_str","constructor_super","constructor_theodore","constructor_toleman","constructor_toro","constructor_toyota","constructor_tyrrell","constructor_venturi","constructor_virgin","constructor_williams","constructor_zakspeed","driver_avg_qualifying_position","driver_season_avg_quali","constructor_avg_qualifying_position","qualifying_SMA_constructor","driver_avg_quali_at_circuit","constructor_avg_quali_at_circuit","driver_poles_at_circuit","driver_career_poles","driver_avg_quali_career","driver_best_qualifying_position","constructor_career_poles","constructor_avg_quali_season","power_unit_Ferrari","power_unit_Honda","power_unit_Mercedes","power_unit_Renault","power_unit_Unknown","era_hybrid_era","era_post_turbo","era_turbo_era","era_v10_era","era_v8_era","rounds_completed"],"feature_types":["float","float","float","float","float","float","int","int","int","int","int","int","int","int","int","int","int","int","int","int","int","int","int","int","int","int","int","int","int","int","int","int","int","int","int","int","int","int","int","int","int","int","int","int","int","int","int","int","int","int","int","int","int","int","int","int","int","int","int","int","int","int","int","int","int","int","int","int","int","int","int","int","int","int","int","int","int","int","int","int","int","int","int","int","int","int","int","int","int","int","int","int","int","int","int","int","int","int","int","int","int","int","int","int","int","int","int","int","int","int","int","int","int","int","int","int","int","int","int","int","int","int","int","int","int","int","int","int","int","int","int","float","float","float","float","float","float","int","int","float","float","int","float","int","int","int","int","int","int","int","int","int","int","int"],"gradient_booster":{"model":{"cats":{"enc":[],"feature_segments":[],"sorted_idx":[]},"gbtree_model_param":{"num_parallel_tree":"1","num_trees":"169"},"iteration_indptr":[0,1,2,3,4,5,6,7,8,9,10,11,12,13,14,15,16,17,18,19,20,21,22,23,24,25,26,27,28,29,30,31,32,33,34,35,36,37,38,39,40,41,42,43,44,45,46,47,48,49,50,51,52,53,54,55,56,57,58,59,60,61,62,63,64,65,66,67,68,69,70,71,72,73,74,75,76,77,78,79,80,81,82,83,84,85,86,87,88,89,90,91,92,93,94,95,96,97,98,99,100,101,102,103,104,105,106,107,108,109,110,111,112,113,114,115,116,117,118,119,120,121,122,123,124,125,126,127,128,129,130,131,132,133,134,135,136,137,138,139,140,141,142,143,144,145,146,147,148,149,150,151,152,153,154,155,156,157,158,159,160,161,162,163,164,165,166,167,168,169],"tree_info":[0,0,0,0,0,0,0,0,0,0,0,0,0,0,0,0,0,0,0,0,0,0,0,0,0,0,0,0,0,0,0,0,0,0,0,0,0,0,0,0,0,0,0,0,0,0,0,0,0,0,0,0,0,0,0,0,0,0,0,0,0,0,0,0,0,0,0,0,0,0,0,0,0,0,0,0,0,0,0,0,0,0,0,0,0,0,0,0,0,0,0,0,0,0,0,0,0,0,0,0,0,0,0,0,0,0,0,0,0,0,0,0,0,0,0,0,0,0,0,0,0,0,0,0,0,0,0,0,0,0,0,0,0,0,0,0,0,0,0,0,0,0,0,0,0,0,0,0,0,0,0,0,0,0,0,0,0,0,0,0,0,0,0,0,0,0,0,0,0],"trees":[{"base_weights":[7.668286E-3,-4.7091833E-1,3.133875E-1,-6.891365E-1,-2.9460058E-1,9.278763E-2,6.0368395E-1,-1.828574E-2,-1.3409435E-2,-3.7872076E-1,-3.7202975E-3,1.5496901E-2,6.146562E-3,1.0505025E-2,6.9248664E-1,-1.08028585E-2,-7.474464E-3,-4.785675E-2,3.2952724E-3,1.5159934E-2,1.8089643E-2,7.948977E-5,-3.0936862E-3],"categories":[],"categories_nodes":[],"categories_segments":[],"categories_sizes":[],"default_left":[0,0,0,0,0,0,0,0,0,0,0,0,0,0,0,0,0,0,0,0,0,0,0],"id":0,"left_children":[1,3,5,7,9,11,13,-1,-1,15,-1,17,-1,-1,19,-1,-1,21,-1,-1,-1,-1,-1],"loss_changes":[3.5705734E2,3.6472458E1,9.52959E1,4.1558685E0,6.0252686E0,1.0887194E1,8.981201E0,0E0,0E0,1.4981613E0,0E0,4.54844E0,0E0,0E0,1.3455963E0,0E0,0E0,1.6358321E0,0E0,0E0,0E0,0E0,0E0],"parents":[2147483647,0,0,1,1,2,2,3,3,4,4,5,5,6,6,9,9,11,11,14,14,17,17],"right_children":[2,4,6,8,10,12,14,-1,-1,16,-1,18,-1,-1,20,-1,-1,22,-1,-1,-1,-1,-1],"split_conditions":[1E1,6.3333335E0,1.5684211E1,4.4E0,8.333333E0,1.4333333E1,1.790909E1,-1.828574E-2,-1.3409435E-2,7.857143E0,-3.7202975E-3,1.275E1,6.146562E-3,1.0505025E-2,1.5E1,-1.08028585E-2,-7.474464E-3,3E0,3.2952724E-3,1.5159934E-2,1.8089643E-2,7.948977E-5,-3.0936862E-3],"split_indices":[131,142,142,131,131,131,142,0,0,142,0,142,0,0,140,0,0,141,0,0,0,0,0],"split_type":[0,0,0,0,0,0,0,0,0,0,0,0,0,0,0,0,0,0,0,0,0,0,0],"sum_hessian":[2.4402915E3,9.5106006E2,1.4892314E3,4.2463617E2,5.264239E2,8.464751E2,6.4275635E2,2.5218596E2,1.724502E2,3.259858E2,2.0043806E2,5.789956E2,2.6747952E2,2.3008723E2,4.1266913E2,1.4505287E2,1.8093294E2,3.823575E2,1.966381E2,2.402345E2,1.7243463E2,2.3551984E2,1.4683766E2],"tree_param":{"num_deleted":"0","num_feature":"154","num_nodes":"23","size_leaf_vector":"1"}},{"base_weights":[-1.1063124E-3,-3.563691E-1,1.9863024E-1,-5.8614236E-1,-2.4100122E-1,7.71052E-2,4.7499844E-1,-1.6633393E-2,-5.1324254E-1,-3.7599486E-1,-1.7529348E-1,-2.1444129E-2,1.4167805E-1,5.31071E-1,7.2193816E-3,-1.0148722E-2,-1.3858043E-2,-7.35247E-3,-1.0445191E-2,-2.279609E-1,-2.226673E-3,-4.2598825E-3,2.224833E-2,1.0407254E-1,6.1307433E-3,4.4390178E-1,6.2617296E-1,-6.1730677E-3,-4.411102E-3,2.203542E-3,-1.783137E-3,1.2180467E-1,7.797805E-4,9.329959E-3,1.1891246E-2,1.3482285E-2,1.6141362E-2,-9.259613E-4,8.29589E-4,9.41668E-2,4.072765E-3,6.5733225E-4,3.0627404E-3],"categories":[],"categories_nodes":[],"categories_segments":[],"categories_sizes":[],"default_left":[0,0,0,0,0,0,0,0,0,0,0,0,0,0,0,0,0,0,0,0,0,0,0,0,0,0,0,0,0,0,0,0,0,0,0,0,0,0,0,0,0,0,0],"id":1,"left_children":[1,3,5,7,9,11,13,-1,15,17,19,21,23,25,-1,-1,-1,-1,-1,27,-1,-1,29,31,-1,33,35,-1,-1,-1,37,39,-1,-1,-1,-1,-1,-1,-1,41,-1,-1,-1],"loss_changes":[2.966964E2,3.9790543E1,8.981714E1,4.103897E0,8.82576E0,1.1844077E1,7.686554E0,0E0,1.7592697E0,1.3044586E0,2.8511963E0,5.1097302E0,4.915663E0,4.9487305E0,0E0,0E0,0E0,0E0,0E0,5.055828E-1,0E0,0E0,9.9022555E-1,1.0576191E0,0E0,8.1987E-1,7.535324E-1,0E0,0E0,0E0,5.903841E-1,9.1498566E-1,0E0,0E0,0E0,0E0,0E0,0E0,0E0,1.012914E0,0E0,0E0,0E0],"parents":[2147483647,0,0,1,1,2,2,3,3,4,4,5,5,6,6,8,8,9,9,10,10,11,11,12,12,13,13,19,19,22,22,23,23,25,25,26,26,30,30,31,31,39,39],"right_children":[2,4,6,8,10,12,14,-1,16,18,20,22,24,26,-1,-1,-1,-1,-1,28,-1,-1,30,32,-1,34,36,-1,-1,-1,38,40,-1,-1,-1,-1,-1,-1,-1,42,-1,-1,-1],"split_conditions":[9.875E0,5E0,1.72E1,2.8E0,6.8636365E0,1.22E1,1E0,-1.6633393E-2,2E0,1.6E1,9.2E0,8.966666E0,1.575E1,1.94E1,7.2193816E-3,-1.0148722E-2,-1.3858043E-2,-7.35247E-3,-1.0445191E-2,8.416667E0,-2.226673E-3,-4.2598825E-3,1.22E2,1.55E1,6.1307433E-3,1.78E1,2.12E1,-6.1730677E-3,-4.411102E-3,2.203542E-3,1.1815789E1,1.4870968E1,7.797805E-4,9.329959E-3,1.1891246E-2,1.3482285E-2,1.6141362E-2,-9.259613E-4,8.29589E-4,1.2294118E1,4.072765E-3,6.5733225E-4,3.0627404E-3],"split_indices":[142,132,133,132,142,131,149,0,4,141,133,134,132,142,0,0,0,0,0,134,0,0,153,136,0,142,133,0,0,0,139,139,0,0,0,0,0,0,0,142,0,0,0],"split_type":[0,0,0,0,0,0,0,0,0,0,0,0,0,0,0,0,0,0,0,0,0,0,0,0,0,0,0,0,0,0,0,0,0,0,0,0,0,0,0,0,0,0,0],"sum_hessian":[4.180816E3,1.5047833E3,2.6760327E3,5.0255692E2,1.0022264E3,1.8590665E3,8.169661E2,1.9260663E2,3.099503E2,3.2744373E2,6.7478265E2,7.352931E2,1.1237734E3,6.1375964E2,2.032065E2,1.4365337E2,1.6629692E2,1.6453818E2,1.6290555E2,4.0848068E2,2.6630194E2,1.5936136E2,5.759317E2,8.517575E2,2.720159E2,3.210971E2,2.9266254E2,2.2680574E2,1.8167496E2,1.46959E2,4.2897272E2,6.805476E2,1.7120993E2,1.7466133E2,1.4643578E2,1.4644617E2,1.4621637E2,2.1446237E2,2.1451033E2,4.405398E2,2.4000781E2,1.5374443E2,2.8679535E2],"tree_param":{"num_deleted":"0","num_feature":"154","num_nodes":"43","size_leaf_vector":"1"}},{"base_weights":[-3.463358E-3,-2.1201575E-1,2.536526E-1,-4.1851124E-1,-9.1210045E-2,1.1425718E-1,3.9901182E-1,-1.3849515E-2,-3.3751893E-1,-1.9197091E-1,-3.6702815E-2,9.877123E-4,1.4369398E-1,3.1375867E-1,4.9160123E-1,-5.511949E-3,-3.7921873E-1,-5.953625E-3,-1.6278283E-1,-7.704065E-2,3.0055037E-3,1.7375506E-1,7.9951977E-4,6.2371185E-3,8.761618E-3,1.0365308E-2,1.4020029E-2,-1.0409262E-2,-7.6980903E-3,-2.453035E-3,-4.8424667E-3,-3.9743804E-3,-3.692153E-2,2.96536E-3,2.0198588E-1,-2.0327533E-4,-1.6586276E-3,5.851701E-3,3.9093276E-3],"categories":[],"categories_nodes":[],"categories_segments":[],"categories_sizes":[],"default_left":[0,0,0,0,0,0,0,0,0,0,0,0,0,0,0,0,0,0,0,0,0,0,0,0,0,0,0,0,0,0,0,0,0,0,0,0,0,0,0],"id":2,"left_children":[1,3,5,7,9,11,13,-1,15,17,19,-1,21,23,25,-1,27,-1,29,31,-1,33,-1,-1,-1,-1,-1,-1,-1,-1,-1,-1,35,-1,37,-1,-1,-1,-1],"loss_changes":[2.1982481E2,5.6414368E1,3.713878E1,1.1145721E1,7.821561E0,1.9817247E0,6.990204E0,0E0,2.382309E0,8.219509E-1,6.121417E0,0E0,2.1776323E0,1.250946E0,2.1911697E0,0E0,1.2170792E0,0E0,7.990961E-1,2.6927176E0,0E0,6.775608E-1,0E0,0E0,0E0,0E0,0E0,0E0,0E0,0E0,0E0,0E0,4.776985E-1,0E0,4.9927235E-1,0E0,0E0,0E0,0E0],"parents":[2147483647,0,0,1,1,2,2,3,3,4,4,5,5,6,6,8,8,9,9,10,10,12,12,13,13,14,14,16,16,18,18,19,19,21,21,32,32,34,34],"right_children":[2,4,6,8,10,12,14,-1,16,18,20,-1,22,24,26,-1,28,-1,30,32,-1,34,-1,-1,-1,-1,-1,-1,-1,-1,-1,-1,36,-1,38,-1,-1,-1,-1],"split_conditions":[1.2375E1,7.4E0,1.6222221E1,4.0526314E0,9.583333E0,1.2235849E1,1.9235294E1,-1.3849515E-2,4E0,7.6666665E0,1.5E1,9.877123E-4,1E0,1.6844444E1,2.2E1,-5.511949E-3,5.6E0,-5.953625E-3,1.67E2,9.185345E0,3.0055037E-3,1.52E2,7.9951977E-4,6.2371185E-3,8.761618E-3,1.0365308E-2,1.4020029E-2,-1.0409262E-2,-7.6980903E-3,-2.453035E-3,-4.8424667E-3,-3.9743804E-3,1.87E2,2.96536E-3,1.2542857E1,-2.0327533E-4,-1.6586276E-3,5.851701E-3,3.9093276E-3],"split_indices":[142,142,142,142,142,139,142,0,141,136,139,0,149,139,142,0,142,0,153,139,0,153,0,0,0,0,0,0,0,0,0,0,153,0,136,0,0,0,0],"split_type":[0,0,0,0,0,0,0,0,0,0,0,0,0,0,0,0,0,0,0,0,0,0,0,0,0,0,0,0,0,0,0,0,0,0,0,0,0,0,0],"sum_hessian":[4.0994116E3,2.2637034E3,1.8357081E3,8.3511395E2,1.4285892E3,9.3753705E2,8.981711E2,2.7267813E2,5.6243585E2,5.0074005E2,9.2784924E2,2.717525E2,6.6578455E2,4.6842404E2,4.2974707E2,1.611122E2,4.0132364E2,1.633416E2,3.3739847E2,7.44938E2,1.8291121E2,5.2200446E2,1.437801E2,2.4873886E2,2.1968518E2,2.8108194E2,1.4866513E2,1.8816833E2,2.1315532E2,1.408025E2,1.9659596E2,2.2730919E2,5.176288E2,1.9363797E2,3.283665E2,2.808378E2,2.3679102E2,1.4596422E2,1.8240227E2],"tree_param":{"num_deleted":"0","num_feature":"154","num_nodes":"39","size_leaf_vector":"1"}},{"base_weights":[-1.20263925E-4,-3.1803548E-1,1.5530305E-1,-5.0355136E-1,-2.1982566E-1,5.758819E-2,3.7919194E-1,-1.5320131E-2,-4.3777135E-1,-1.7816412E-1,-8.329487E-3,-3.0594697E-2,1.3726348E-1,3.290387E-1,1.30202165E-2,-1.1202387E-2,-9.29762E-3,-6.7575527E-3,-1.3675514E-1,-3.1432735E-3,2.0921675E-3,1.1246679E-1,6.425701E-3,3.685635E-1,5.5615613E-3,-1.7321035E-1,-1.2325814E-3,2.542003E-2,-1.8057829E-3,2.7010476E-4,1.3772321E-1,6.785127E-3,9.889124E-3,-3.0425007E-3,-4.8804553E-3,-1.129452E-3,6.332099E-2,1.07361965E-1,5.23003E-3,3.153071E-3,2.3933692E-4,1.3149375E-3,3.1122435E-3],"categories":[],"categories_nodes":[],"categories_segments":[],"categories_sizes":[],"default_left":[0,0,0,0,0,0,0,0,0,0,0,0,0,0,0,0,0,0,0,0,0,0,0,0,0,0,0,0,0,0,0,0,0,0,0,0,0,0,0,0,0,0,0],"id":3,"left_children":[1,3,5,7,9,11,13,-1,15,17,-1,19,21,23,-1,-1,-1,-1,25,-1,27,29,-1,31,-1,33,-1,35,-1,-1,37,-1,-1,-1,-1,-1,39,41,-1,-1,-1,-1,-1],"loss_changes":[2.0107408E2,2.425946E1,5.9735786E1,4.2220917E0,4.746147E0,1.3381263E1,6.9981613E0,0E0,3.9710236E-1,2.907034E0,0E0,3.0286899E0,3.2839184E0,2.3167725E0,0E0,0E0,0E0,0E0,1.4600649E0,0E0,1.2437241E0,2.140914E0,0E0,1.7320366E0,0E0,4.5550346E-1,0E0,1.4642147E0,0E0,0E0,1.6683989E0,0E0,0E0,0E0,0E0,0E0,1.2801387E0,5.9858227E-1,0E0,0E0,0E0,0E0,0E0],"parents":[2147483647,0,0,1,1,2,2,3,3,4,4,5,5,6,6,8,8,9,9,11,11,12,12,13,13,18,18,20,20,21,21,23,23,25,25,27,27,30,30,36,36,37,37],"right_children":[2,4,6,8,10,12,14,-1,16,18,-1,20,22,24,-1,-1,-1,-1,26,-1,28,30,-1,32,-1,34,-1,36,-1,-1,38,-1,-1,-1,-1,-1,40,42,-1,-1,-1,-1,-1],"split_conditions":[9.25E0,5E0,1.65E1,2.8E0,1E0,1.2666667E1,1.7E1,-1.5320131E-2,4.4666667E0,6.75E0,-8.329487E-3,9.909091E0,1.1E1,1E0,1.30202165E-2,-1.1202387E-2,-9.29762E-3,-6.7575527E-3,1.0043478E1,-3.1432735E-3,2.9E2,6E0,6.425701E-3,1E1,5.5615613E-3,1.6E2,-1.2325814E-3,6E0,-1.8057829E-3,2.7010476E-4,1E0,6.785127E-3,9.889124E-3,-3.0425007E-3,-4.8804553E-3,-1.129452E-3,1.15E1,1.35E1,5.23003E-3,3.153071E-3,2.3933692E-4,1.3149375E-3,3.1122435E-3],"split_indices":[131,131,142,132,4,131,140,0,132,132,0,132,140,149,0,0,0,0,142,0,153,5,0,5,0,153,0,5,0,0,148,0,0,0,0,0,132,132,0,0,0,0,0],"split_type":[0,0,0,0,0,0,0,0,0,0,0,0,0,0,0,0,0,0,0,0,0,0,0,0,0,0,0,0,0,0,0,0,0,0,0,0,0,0,0,0,0,0,0],"sum_hessian":[4.0688452E3,1.336221E3,2.7326243E3,4.6201495E2,8.74206E2,1.9027675E3,8.298568E2,1.4439928E2,3.176157E2,6.652798E2,2.0892625E2,9.025565E2,1.00021094E3,6.4217114E2,1.876857E2,1.7597333E2,1.4164235E2,1.844112E2,4.8086856E2,2.1947258E2,6.83084E2,8.449962E2,1.552147E2,4.5125906E2,1.9091208E2,3.3521713E2,1.4565143E2,5.2749066E2,1.555933E2,1.6982805E2,6.7516815E2,1.7022937E2,2.810297E2,1.4380031E2,1.9141682E2,1.7909561E2,3.4839502E2,4.957443E2,1.7942387E2,1.496993E2,1.9869574E2,1.5887195E2,3.3687234E2],"tree_param":{"num_deleted":"0","num_feature":"154","num_nodes":"43","size_leaf_vector":"1"}},{"base_weights":[4.252435E-3,-2.454777E-1,1.951485E-1,-4.7868413E-1,-1.5980165E-1,1.0310897E-1,4.0391892E-1,-1.3506673E-2,-9.258223E-3,-2.689347E-1,-1.0993083E-1,4.2734064E-2,1.9099908E-1,3.6211702E-1,1.2153052E-2,-8.334294E-3,-5.1530427E-3,-1.7485356E-1,-5.082811E-2,-1.6544464E-3,6.6821486E-2,1.4464624E-1,7.903913E-3,6.9071255E-3,3.8945544E-1,-5.187861E-3,-3.2122058E-3,2.1225627E-4,-7.943716E-2,2.4543904E-2,9.987462E-2,1.2533097E-1,4.056685E-3,8.4393965E-3,9.808543E-3,-8.484913E-4,-2.968617E-3,1.5399689E-3,-1.5472613E-4,2.9938594E-3,1.4012478E-3,3.4974194E-3,2.4107175E-3],"categories":[],"categories_nodes":[],"categories_segments":[],"categories_sizes":[],"default_left":[0,0,0,0,0,0,0,0,0,0,0,0,0,0,0,0,0,0,0,0,0,0,0,0,0,0,0,0,0,0,0,0,0,0,0,0,0,0,0,0,0,0,0],"id":4,"left_children":[1,3,5,7,9,11,13,-1,-1,15,17,19,21,23,-1,-1,-1,25,27,-1,29,31,-1,-1,33,-1,-1,-1,35,37,39,41,-1,-1,-1,-1,-1,-1,-1,-1,-1,-1,-1],"loss_changes":[1.9021205E2,3.4458878E1,4.3400337E1,3.6102371E0,6.8389854E0,8.30604E0,3.0529327E0,0E0,0E0,1.6188335E0,3.3085108E0,2.5272546E0,4.17354E0,8.8131714E-1,0E0,0E0,0E0,6.7588425E-1,7.871897E-1,0E0,1.0601084E0,2.1547985E-1,0E0,0E0,1.9890976E-1,0E0,0E0,0E0,6.024362E-1,4.3258473E-1,4.4434023E-1,1.2091875E-1,0E0,0E0,0E0,0E0,0E0,0E0,0E0,0E0,0E0,0E0,0E0],"parents":[2147483647,0,0,1,1,2,2,3,3,4,4,5,5,6,6,9,9,10,10,11,11,12,12,13,13,17,17,18,18,20,20,21,21,24,24,28,28,29,29,30,30,31,31],"right_children":[2,4,6,8,10,12,14,-1,-1,16,18,20,22,24,-1,-1,-1,26,28,-1,30,32,-1,-1,34,-1,-1,-1,36,38,40,42,-1,-1,-1,-1,-1,-1,-1,-1,-1,-1,-1],"split_conditions":[1.1E1,5E0,1.78E1,5.8691587E0,4E0,1.43E1,2.15E1,-1.3506673E-2,-9.258223E-3,8.023529E0,9.166667E0,5E0,1E0,1.7933332E1,1.2153052E-2,-8.334294E-3,-5.1530427E-3,7.25E0,1E0,-1.6544464E-3,1.22E1,1.6E1,7.903913E-3,6.9071255E-3,1.8E1,-5.187861E-3,-3.2122058E-3,2.1225627E-4,1.05E1,1.0916667E1,1.36E1,1.5416667E1,4.056685E-3,8.4393965E-3,9.808543E-3,-8.484913E-4,-2.968617E-3,1.5399689E-3,-1.5472613E-4,2.9938594E-3,1.4012478E-3,3.4974194E-3,2.4107175E-3],"split_indices":[133,133,133,139,5,132,133,0,0,139,132,5,148,132,0,0,0,132,147,0,132,133,0,0,139,0,0,0,132,132,132,132,0,0,0,0,0,0,0,0,0,0,0],"split_type":[0,0,0,0,0,0,0,0,0,0,0,0,0,0,0,0,0,0,0,0,0,0,0,0,0,0,0,0,0,0,0,0,0,0,0,0,0,0,0,0,0,0,0],"sum_hessian":[3.9898997E3,1.728323E3,2.2615767E3,4.6390933E2,1.2644136E3,1.5700482E3,6.9152856E2,2.2564972E2,2.3825961E2,3.9577795E2,8.686357E2,9.3151135E2,6.385368E2,5.0137683E2,1.9015172E2,1.500012E2,2.4577673E2,4.1299002E2,4.5564566E2,1.6332031E2,7.6819104E2,4.8281796E2,1.5571884E2,1.4169534E2,3.596815E2,1.9236464E2,2.2062537E2,1.4627101E2,3.0937466E2,3.3854913E2,4.296419E2,2.82815E2,2.0000294E2,1.5706345E2,2.0261806E2,1.6004129E2,1.4933337E2,1.4843277E2,1.9011638E2,2.581404E2,1.715015E2,1.4222481E2,1.4059021E2],"tree_param":{"num_deleted":"0","num_feature":"154","num_nodes":"43","size_leaf_vector":"1"}},{"base_weights":[6.613604E-3,-2.1517023E-1,1.7298052E-1,-4.3674663E-1,-1.3412327E-1,1.0130273E-1,4.0293112E-1,-1.3028303E-2,-8.321733E-3,-6.2164543E-3,-9.709098E-2,2.8711243E-2,1.5616012E-1,7.1598864E-3,4.713706E-1,-1.1706213E-1,4.3597282E-4,-1.9433979E-2,7.495101E-2,1.189064E-1,2.260594E-1,1.0056227E-2,1.2337683E-2,-1.6050105E-1,-8.596009E-2,2.7024804E-4,-1.1386187E-3,5.526744E-4,3.6953331E-3,9.9548034E-2,4.259413E-3,6.244135E-3,4.568686E-3,-4.9361843E-3,-2.8050006E-3,-5.433772E-2,-3.1983808E-3,8.721198E-4,1.3452242E-1,-3.344573E-5,-2.5044591E-3,3.731522E-3,2.5196045E-3],"categories":[],"categories_nodes":[],"categories_segments":[],"categories_sizes":[],"default_left":[0,0,0,0,0,0,0,0,0,0,0,0,0,0,0,0,0,0,0,0,0,0,0,0,0,0,0,0,0,0,0,0,0,0,0,0,0,0,0,0,0,0,0],"id":5,"left_children":[1,3,5,7,9,11,13,-1,-1,-1,15,17,19,-1,21,23,-1,25,27,29,31,-1,-1,33,35,-1,-1,-1,-1,37,-1,-1,-1,-1,-1,39,-1,-1,41,-1,-1,-1,-1],"loss_changes":[1.4637254E2,3.0464073E1,3.730844E1,4.289467E0,5.8832455E0,6.864189E0,3.6068573E0,0E0,0E0,0E0,2.2423382E0,1.6647389E0,2.5225506E0,0E0,6.1932373E-1,1.0878458E0,0E0,3.257673E-1,1.5767422E0,7.279186E-1,3.716259E-1,0E0,0E0,6.5453625E-1,7.292707E-1,0E0,0E0,0E0,0E0,1.0551367E0,0E0,0E0,0E0,0E0,0E0,7.924167E-1,0E0,0E0,1.7350864E-1,0E0,0E0,0E0,0E0],"parents":[2147483647,0,0,1,1,2,2,3,3,4,4,5,5,6,6,10,10,11,11,12,12,14,14,15,15,17,17,18,18,19,19,20,20,23,23,24,24,29,29,35,35,38,38],"right_children":[2,4,6,8,10,12,14,-1,-1,-1,16,18,20,-1,22,24,-1,26,28,30,32,-1,-1,34,36,-1,-1,-1,-1,38,-1,-1,-1,-1,-1,40,-1,-1,42,-1,-1,-1,-1],"split_conditions":[1.08E1,5.2E0,1.8041666E1,3.3333333E0,6.8E0,1.36E1,1.8766666E1,-1.3028303E-2,-8.321733E-3,-6.2164543E-3,1.4153846E1,1.1857142E1,1.5769231E1,7.1598864E-3,2.12E1,8.7E0,4.3597282E-4,1E0,7E0,1.6672897E1,1.68E1,1.0056227E-2,1.2337683E-2,1.7E1,1.4E1,2.7024804E-4,-1.1386187E-3,5.526744E-4,3.6953331E-3,1.3333333E1,4.259413E-3,6.244135E-3,4.568686E-3,-4.9361843E-3,-2.8050006E-3,1.0975E1,-3.1983808E-3,8.721198E-4,1.4388889E1,-3.344573E-5,-2.5044591E-3,3.731522E-3,2.5196045E-3],"split_indices":[133,133,142,132,142,133,134,0,0,0,139,132,142,0,133,132,0,141,3,139,142,0,0,3,3,0,0,0,0,132,0,0,0,0,0,139,0,0,139,0,0,0,0],"split_type":[0,0,0,0,0,0,0,0,0,0,0,0,0,0,0,0,0,0,0,0,0,0,0,0,0,0,0,0,0,0,0,0,0,0,0,0,0,0,0,0,0,0,0],"sum_hessian":[3.9669395E3,1.7E3,2.2669395E3,4.548227E2,1.2451772E3,1.7286891E3,5.382504E2,1.942446E2,2.605781E2,2.778613E2,9.67316E2,7.4497186E2,9.8371716E2,2.188926E2,3.1935785E2,8.255073E2,1.4180865E2,3.638628E2,3.811091E2,6.4286957E2,3.408476E2,1.66515E2,1.5284286E2,3.428481E2,4.826592E2,1.7347783E2,1.9038496E2,2.3382736E2,1.4728174E2,4.8953812E2,1.5333144E2,1.5749657E2,1.8335103E2,1.5866682E2,1.8418127E2,2.9511472E2,1.875445E2,1.7643272E2,3.131054E2,1.4654254E2,1.4857219E2,1.6951334E2,1.4359207E2],"tree_param":{"num_deleted":"0","num_feature":"154","num_nodes":"43","size_leaf_vector":"1"}},{"base_weights":[1.7119035E-3,-2.5486085E-1,1.4258534E-1,-4.8611477E-1,-1.8529303E-1,7.305442E-2,3.569354E-1,-1.3495895E-2,-9.3782125E-3,-2.5166157E-1,-1.1669219E-1,6.010124E-3,1.4948855E-1,3.1633058E-1,1.1240282E-2,-8.0705825E-3,-2.1236524E-1,-8.753156E-2,-4.4257143E-3,-3.8505238E-3,3.6084548E-2,1.7188591E-1,1.3003742E-3,2.6001567E-1,1.0317532E-2,-6.453318E-3,-3.8357638E-3,-2.920594E-3,-7.028486E-4,1.04785755E-1,-2.3304613E-2,2.0368553E-3,1.9922455E-1,4.4027823E-3,7.677191E-3,4.2535816E-3,-0E0,2.6714176E-4,-1.6841668E-3,3.3812134E-3,2.4769191E-1,6.296562E-3,5.4281866E-3],"categories":[],"categories_nodes":[],"categories_segments":[],"categories_sizes":[],"default_left":[0,0,0,0,0,0,0,0,0,0,0,0,0,0,0,0,0,0,0,0,0,0,0,0,0,0,0,0,0,0,0,0,0,0,0,0,0,0,0,0,0,0,0],"id":6,"left_children":[1,3,5,7,9,11,13,-1,-1,15,17,19,21,23,-1,-1,25,27,-1,-1,29,31,-1,33,-1,-1,-1,-1,-1,35,37,-1,39,-1,-1,-1,-1,-1,-1,-1,41,-1,-1],"loss_changes":[1.4058604E2,2.2097008E1,3.7381687E1,2.2808762E0,4.785057E0,9.7033615E0,2.843338E0,0E0,0E0,1.8209229E0,1.0391636E0,5.116623E0,1.8505039E0,2.9979782E0,0E0,0E0,1.0852375E0,7.509775E-1,0E0,0E0,3.5132046E0,1.6461582E0,0E0,1.4257259E0,0E0,0E0,0E0,0E0,0E0,3.149149E0,7.6738125E-1,0E0,1.4348145E0,0E0,0E0,0E0,0E0,0E0,0E0,0E0,3.9028168E-2,0E0,0E0],"parents":[2147483647,0,0,1,1,2,2,3,3,4,4,5,5,6,6,9,9,10,10,11,11,12,12,13,13,16,16,17,17,20,20,21,21,23,23,29,29,30,30,32,32,40,40],"right_children":[2,4,6,8,10,12,14,-1,-1,16,18,20,22,24,-1,-1,26,28,-1,-1,30,32,-1,34,-1,-1,-1,-1,-1,36,38,-1,40,-1,-1,-1,-1,-1,-1,-1,42,-1,-1],"split_conditions":[1E1,4.4E0,1.7571428E1,3E0,8.1E0,1.3357142E1,2.1428572E1,-1.3495895E-2,-9.3782125E-3,5.4117646E0,1E0,9.21875E0,1E0,1.5E1,1.1240282E-2,-8.0705825E-3,7.8461537E0,1.0473684E1,-4.4257143E-3,-3.8505238E-3,4E0,8E0,1.3003742E-3,1.5857142E1,1.0317532E-2,-6.453318E-3,-3.8357638E-3,-2.920594E-3,-7.028486E-4,1E0,1.9E1,2.0368553E-3,1.5E1,4.4027823E-3,7.677191E-3,4.2535816E-3,-0E0,2.6714176E-4,-1.6841668E-3,3.3812134E-3,1E1,6.296562E-3,5.4281866E-3],"split_indices":[131,131,142,131,142,142,142,0,0,142,151,142,149,140,0,0,136,142,0,0,3,5,0,136,0,0,0,0,0,141,3,0,131,0,0,0,0,0,0,0,5,0,0],"split_type":[0,0,0,0,0,0,0,0,0,0,0,0,0,0,0,0,0,0,0,0,0,0,0,0,0,0,0,0,0,0,0,0,0,0,0,0,0,0,0,0,0,0,0],"sum_hessian":[3.889723E3,1.3784038E3,2.511319E3,3.1828473E2,1.0601191E3,1.8966925E3,6.1462665E2,1.637837E2,1.5450102E2,5.3790955E2,5.2220953E2,1.01120703E3,8.854855E2,4.5805994E2,1.5656671E2,1.634007E2,3.7450888E2,3.702489E2,1.5196063E2,1.5242928E2,8.587778E2,7.1494214E2,1.7054333E2,3.1213403E2,1.4592592E2,1.6936668E2,2.0514218E2,2.2741342E2,1.4283548E2,3.989722E2,4.5980557E2,1.7371857E2,5.412236E2,1.4598077E2,1.6615326E2,2.3319206E2,1.6578015E2,2.6559744E2,1.9420813E2,2.5132477E2,2.8989877E2,1.419215E2,1.4797728E2],"tree_param":{"num_deleted":"0","num_feature":"154","num_nodes":"43","size_leaf_vector":"1"}},{"base_weights":[-6.80175E-3,-1.5861663E-1,1.9555147E-1,-3.7883392E-1,-7.250226E-2,1.0210238E-1,3.4407297E-1,-1.2443333E-2,-3.0695668E-1,-5.7080733E-3,-4.5925513E-2,1.2831652E-1,-6.634848E-4,3.8881347E-1,5.376402E-3,-9.380466E-3,-5.9494893E-3,-6.9891125E-2,1.4813065E-2,6.575594E-2,2.1044116E-1,4.599125E-1,6.542423E-3,-1.17297344E-1,-4.427083E-2,1.8045615E-3,-9.2773035E-4,1.8836382E-4,2.8910094E-3,3.956291E-3,6.060842E-3,1.0050095E-2,1.1702491E-2,-1.3889845E-3,-3.7260237E-3,-2.7154032E-3,-1.0738878E-2,1.0010529E-3,-1.4753677E-3],"categories":[],"categories_nodes":[],"categories_segments":[],"categories_sizes":[],"default_left":[0,0,0,0,0,0,0,0,0,0,0,0,0,0,0,0,0,0,0,0,0,0,0,0,0,0,0,0,0,0,0,0,0,0,0,0,0,0,0],"id":7,"left_children":[1,3,5,7,9,11,13,-1,15,-1,17,19,-1,21,-1,-1,-1,23,25,27,29,31,-1,33,35,-1,-1,-1,-1,-1,-1,-1,-1,-1,-1,-1,37,-1,-1],"loss_changes":[1.18943054E2,4.1907352E1,2.2980515E1,6.4538803E0,7.0977535E0,3.487461E0,3.2774887E0,0E0,1.9981995E0,0E0,2.0075314E0,4.330928E0,0E0,3.6070786E0,0E0,0E0,0E0,1.1813865E0,1.2904854E0,1.5586214E0,6.7408943E-1,2.2651291E-1,0E0,7.866225E-1,1.5038592E0,0E0,0E0,0E0,0E0,0E0,0E0,0E0,0E0,0E0,0E0,0E0,1.195937E0,0E0,0E0],"parents":[2147483647,0,0,1,1,2,2,3,3,4,4,5,5,6,6,8,8,10,10,11,11,13,13,17,17,18,18,19,19,20,20,21,21,23,23,24,24,36,36],"right_children":[2,4,6,8,10,12,14,-1,16,-1,18,20,-1,22,-1,-1,-1,24,26,28,30,32,-1,34,36,-1,-1,-1,-1,-1,-1,-1,-1,-1,-1,-1,38,-1,-1],"split_conditions":[1.3E1,6.4E0,1.78E1,3.4E0,7.25E0,1E0,1E0,-1.2443333E-2,5.0555553E0,-5.7080733E-3,1.2E1,1.4666667E1,-6.634848E-4,1E0,5.376402E-3,-9.380466E-3,-5.9494893E-3,9E0,1.98E2,1.375E1,1.6E1,1.7666666E1,6.542423E-3,8.83871E0,1.0063349E1,1.8045615E-3,-9.2773035E-4,1.8836382E-4,2.8910094E-3,3.956291E-3,6.060842E-3,1.0050095E-2,1.1702491E-2,-1.3889845E-3,-3.7260237E-3,-2.7154032E-3,1.87E2,1.0010529E-3,-1.4753677E-3],"split_indices":[133,131,133,133,142,149,149,0,142,0,142,142,0,150,0,0,0,131,153,139,133,139,0,139,139,0,0,0,0,0,0,0,0,0,0,0,153,0,0],"split_type":[0,0,0,0,0,0,0,0,0,0,0,0,0,0,0,0,0,0,0,0,0,0,0,0,0,0,0,0,0,0,0,0,0,0,0,0,0,0,0],"sum_hessian":[3.8717554E3,2.2124321E3,1.6593232E3,6.2151013E2,1.590922E3,1.0190298E3,6.402935E2,2.0362758E2,4.1788254E2,2.1597472E2,1.3749474E3,8.4885065E2,1.7017917E2,4.623302E2,1.7796329E2,1.5950685E2,2.583757E2,9.871782E2,3.8776907E2,4.8264783E2,3.662028E2,2.82496E2,1.7983421E2,3.4475958E2,6.4241864E2,1.8234009E2,2.0542899E2,2.3926924E2,2.4337859E2,1.8914359E2,1.7705922E2,1.4138016E2,1.4111584E2,1.4118564E2,2.0357396E2,2.061111E2,4.3630756E2,2.1413391E2,2.2217365E2],"tree_param":{"num_deleted":"0","num_feature":"154","num_nodes":"39","size_leaf_vector":"1"}},{"base_weights":[-9.638806E-3,-2.6179117E-1,1.2063855E-1,-1.1935702E-2,-2.0471919E-1,3.8780853E-2,3.0778694E-1,-2.7153942E-1,-1.24597184E-1,-1.1010994E-1,7.336432E-2,2.4203391E-1,3.940297E-1,-8.477851E-3,-2.3360738E-1,-1.2343208E-3,-4.186549E-3,-4.7968114E-3,-6.1385E-4,5.366334E-2,5.000442E-3,3.4295516E-3,2.8818467E-1,8.428546E-3,1.0467566E-2,-6.5653906E-3,-4.952412E-3,2.1502206E-2,9.415168E-2,5.583111E-3,7.944473E-3,-3.147358E-3,2.666097E-3,1.3062997E-1,1.2747211E-3,1.6400474E-3,-8.915231E-4,3.6063443E-3,2.580902E-3],"categories":[],"categories_nodes":[],"categories_segments":[],"categories_sizes":[],"default_left":[0,0,0,0,0,0,0,0,0,0,0,0,0,0,0,0,0,0,0,0,0,0,0,0,0,0,0,0,0,0,0,0,0,0,0,0,0,0,0],"id":8,"left_children":[1,3,5,-1,7,9,11,13,15,17,19,21,23,-1,25,-1,-1,-1,-1,27,-1,-1,29,-1,-1,-1,-1,31,33,-1,-1,35,-1,37,-1,-1,-1,-1,-1],"loss_changes":[1.2569296E2,1.7946854E1,3.8601902E1,0E0,5.606243E0,9.034916E0,4.273308E0,1.816494E0,1.795311E0,2.5473714E0,3.8409224E0,1.9060402E0,5.055542E-1,0E0,3.7050056E-1,0E0,0E0,0E0,0E0,1.612108E0,0E0,0E0,6.633434E-1,0E0,0E0,0E0,0E0,1.5769331E0,7.895732E-1,0E0,0E0,1.3657624E0,0E0,1.0551596E-1,0E0,0E0,0E0,0E0,0E0],"parents":[2147483647,0,0,1,1,2,2,4,4,5,5,6,6,7,7,8,8,9,9,10,10,11,11,12,12,14,14,19,19,22,22,27,27,28,28,31,31,33,33],"right_children":[2,4,6,-1,8,10,12,14,16,18,20,22,24,-1,26,-1,-1,-1,-1,28,-1,-1,30,-1,-1,-1,-1,32,34,-1,-1,36,-1,38,-1,-1,-1,-1,-1],"split_conditions":[1E1,3.75E0,1.6416666E1,-1.1935702E-2,5E0,9.9E0,1.8766666E1,6.1E0,1.95E2,5E0,1.58E1,9E0,2.125E1,-8.477851E-3,1.22E2,-1.2343208E-3,-4.186549E-3,-4.7968114E-3,-6.1385E-4,1.35E1,5.000442E-3,3.4295516E-3,1.8041666E1,8.428546E-3,1.0467566E-2,-6.5653906E-3,-4.952412E-3,1.3666667E1,1.36E1,5.583111E-3,7.944473E-3,1.1233334E1,2.666097E-3,1.4866667E1,1.2747211E-3,1.6400474E-3,-8.915231E-4,3.6063443E-3,2.580902E-3],"split_indices":[132,132,142,0,5,134,134,134,153,5,132,5,142,0,153,0,0,0,0,134,0,0,142,0,0,0,0,132,132,0,0,134,0,134,0,0,0,0,0],"split_type":[0,0,0,0,0,0,0,0,0,0,0,0,0,0,0,0,0,0,0,0,0,0,0,0,0,0,0,0,0,0,0,0,0,0,0,0,0,0,0],"sum_hessian":[3.8256582E3,1.3034839E3,2.5221743E3,2.4793771E2,1.0555461E3,1.7551595E3,7.670147E2,5.7470166E2,4.8084448E2,3.3021417E2,1.4249454E3,4.361094E2,3.3090533E2,1.7400307E2,4.006986E2,2.023795E2,2.7846497E2,1.5665962E2,1.7355453E2,1.247559E3,1.7738646E2,1.4130107E2,2.9480835E2,1.8655914E2,1.4434618E2,1.4168814E2,2.5901047E2,6.9682574E2,5.5073315E2,1.4140475E2,1.534036E2,5.476003E2,1.4922546E2,2.8759937E2,2.6313382E2,1.7569899E2,3.719013E2,1.4075665E2,1.4684271E2],"tree_param":{"num_deleted":"0","num_feature":"154","num_nodes":"39","size_leaf_vector":"1"}},{"base_weights":[-7.894188E-3,-1.946157E-1,1.4538288E-1,-4.2658976E-1,-1.2723523E-1,5.8177836E-2,3.1031778E-1,-1.2767806E-2,-8.544067E-3,-2.1306542E-1,-6.998968E-2,1.2613208E-2,1.3941978E-1,2.7289557E-1,1.0982116E-2,-6.4067314E-3,-1.8976349E-1,-1.4400929E-1,-2.8451579E-2,-1.182681E-3,2.9468264E-2,1.1027881E-1,4.8573767E-3,2.2892785E-1,7.871648E-3,-3.7721642E-3,-5.1506073E-3,-3.8634192E-3,-2.915855E-3,-2.0775774E-3,-3.4511375E-4,6.770296E-3,2.0373696E-3,1.3355467E-3,3.49991E-3,6.6355052E-3,4.3073003E-3,1.2645633E-3,-1.5865302E-3,-1.6233552E-2,1.4352901E-3,2.1412065E-4,-1.149722E-3],"categories":[],"categories_nodes":[],"categories_segments":[],"categories_sizes":[],"default_left":[0,0,0,0,0,0,0,0,0,0,0,0,0,0,0,0,0,0,0,0,0,0,0,0,0,0,0,0,0,0,0,0,0,0,0,0,0,0,0,0,0,0,0],"id":9,"left_children":[1,3,5,7,9,11,13,-1,-1,15,17,19,21,23,-1,-1,25,27,29,-1,31,33,-1,35,-1,-1,-1,-1,-1,-1,37,39,-1,-1,-1,-1,-1,-1,-1,41,-1,-1,-1],"loss_changes":[1.0924459E2,2.6836327E1,3.0103973E1,2.7512283E0,6.523546E0,5.0606513E0,4.0727615E0,0E0,0E0,6.609459E-1,2.4446902E0,9.2563903E-1,9.069586E-1,1.4615517E0,0E0,0E0,2.7885532E-1,8.235407E-2,8.4779894E-1,0E0,8.819585E-1,6.6977215E-1,0E0,7.591324E-1,0E0,0E0,0E0,0E0,0E0,0E0,1.2570331E0,6.2061256E-1,0E0,0E0,0E0,0E0,0E0,0E0,0E0,2.8781626E-1,0E0,0E0,0E0],"parents":[2147483647,0,0,1,1,2,2,3,3,4,4,5,5,6,6,9,9,10,10,11,11,12,12,13,13,16,16,17,17,18,18,20,20,21,21,23,23,30,30,31,31,39,39],"right_children":[2,4,6,8,10,12,14,-1,-1,16,18,20,22,24,-1,-1,26,28,30,-1,32,34,-1,36,-1,-1,-1,-1,-1,-1,38,40,-1,-1,-1,-1,-1,-1,-1,42,-1,-1,-1],"split_conditions":[1.12E1,5E0,1.72E1,2.8E0,7.8E0,1.45E1,1.8E1,-1.2767806E-2,-8.544067E-3,3E0,5E0,9.5E0,2E0,2E1,1.0982116E-2,-6.4067314E-3,6.4E0,8E0,9.363636E0,-1.182681E-3,1E0,6E0,4.8573767E-3,7E0,7.871648E-3,-3.7721642E-3,-5.1506073E-3,-3.8634192E-3,-2.915855E-3,-2.0775774E-3,1.02E1,1E0,2.0373696E-3,1.3355467E-3,3.49991E-3,6.6355052E-3,4.3073003E-3,1.2645633E-3,-1.5865302E-3,1.38E1,1.4352901E-3,2.1412065E-4,-1.149722E-3],"split_indices":[133,132,133,132,133,132,140,0,0,5,5,135,141,133,0,0,133,136,132,0,148,140,0,140,0,0,0,0,0,0,133,152,0,0,0,0,0,0,0,134,0,0,0],"split_type":[0,0,0,0,0,0,0,0,0,0,0,0,0,0,0,0,0,0,0,0,0,0,0,0,0,0,0,0,0,0,0,0,0,0,0,0,0,0,0,0,0,0,0],"sum_hessian":[3.8166855E3,1.7209282E3,2.0957573E3,3.8688828E2,1.3340399E3,1.3714249E3,7.243324E2,1.415986E2,2.4528969E2,5.3291113E2,8.011288E2,8.795493E2,4.9187558E2,5.8317535E2,1.4115703E2,1.5197218E2,3.8093893E2,2.8696613E2,5.1416266E2,1.8527095E2,6.942784E2,3.421281E2,1.4974748E2,3.368981E2,2.4627724E2,1.8400429E2,1.9693465E2,1.4644162E2,1.405245E2,1.6404015E2,3.501225E2,4.9694638E2,1.9733199E2,1.4181343E2,2.0031467E2,1.5965836E2,1.7723973E2,1.9295189E2,1.5717061E2,3.4687152E2,1.5007486E2,1.9285533E2,1.540162E2],"tree_param":{"num_deleted":"0","num_feature":"154","num_nodes":"43","size_leaf_vector":"1"}},{"base_weights":[3.558021E-3,-2.1317334E-1,1.232594E-1,-3.7990963E-1,-1.2929769E-1,6.7357846E-2,3.371057E-1,-1.13778785E-2,-7.117986E-3,-1.586588E-1,-3.0407266E-4,2.3355467E-2,1.9676417E-1,2.6580253E-1,1.2063818E-2,-6.243131E-3,-1.2909095E-1,-2.5091977E-3,4.2536207E-2,1.4858802E-1,6.9834567E-3,4.624654E-3,7.3859463E-3,-1.797172E-1,-1.6341703E-3,1.283268E-2,6.756039E-2,3.87075E-3,3.1380174E-3,-4.6287426E-3,-3.8032776E-3,2.0060462E-3,-1.1342111E-2,2.8897447E-3,5.0842553E-2,-1.3145672E-3,9.788022E-4,6.065268E-4,1.6251385E-3],"categories":[],"categories_nodes":[],"categories_segments":[],"categories_sizes":[],"default_left":[0,0,0,0,0,0,0,0,0,0,0,0,0,0,0,0,0,0,0,0,0,0,0,0,0,0,0,0,0,0,0,0,0,0,0,0,0,0,0],"id":10,"left_children":[1,3,5,7,9,11,13,-1,-1,15,-1,17,19,21,-1,-1,23,-1,25,27,-1,-1,-1,29,-1,31,33,-1,-1,-1,-1,-1,35,-1,37,-1,-1,-1,-1],"loss_changes":[9.9454216E1,1.9013725E1,2.948375E1,3.5414886E0,3.0858612E0,1.112962E1,6.194786E0,0E0,0E0,2.204895E0,0E0,3.6218574E0,2.297472E0,1.1197147E0,0E0,0E0,1.6941099E0,0E0,9.3859005E-1,4.6277046E-2,0E0,0E0,0E0,5.134201E-2,0E0,1.0243804E0,6.094072E-1,0E0,0E0,0E0,0E0,0E0,1.01813E0,0E0,2.2753716E-1,0E0,0E0,0E0,0E0],"parents":[2147483647,0,0,1,1,2,2,3,3,4,4,5,5,6,6,9,9,11,11,12,12,13,13,16,16,18,18,19,19,23,23,25,25,26,26,32,32,34,34],"right_children":[2,4,6,8,10,12,14,-1,-1,16,-1,18,20,22,-1,-1,24,-1,26,28,-1,-1,-1,30,-1,32,34,-1,-1,-1,-1,-1,36,-1,38,-1,-1,-1,-1],"split_conditions":[1E1,6.0526314E0,1.1E1,4E0,1.0939394E1,1.5769231E1,1.9E1,-1.13778785E-2,-7.117986E-3,5.9666667E0,-3.0407266E-4,9.375E0,1.9083334E1,1.7125E1,1.2063818E-2,-6.243131E-3,1.5E1,-2.5091977E-3,1.2294118E1,1.64E1,6.9834567E-3,4.624654E-3,7.3859463E-3,8.416667E0,-1.6341703E-3,1.02E1,1.3043478E1,3.87075E-3,3.1380174E-3,-4.6287426E-3,-3.8032776E-3,2.0060462E-3,1E0,2.8897447E-3,4E0,-1.3145672E-3,9.788022E-4,6.065268E-4,1.6251385E-3],"split_indices":[134,142,140,142,142,142,140,0,0,134,0,142,142,142,0,0,141,0,142,134,0,0,0,134,0,142,142,0,0,0,0,0,141,0,140,0,0,0,0],"split_type":[0,0,0,0,0,0,0,0,0,0,0,0,0,0,0,0,0,0,0,0,0,0,0,0,0,0,0,0,0,0,0,0,0,0,0,0,0,0,0],"sum_hessian":[3.8337417E3,1.3636865E3,2.4700552E3,4.558673E2,9.078192E2,1.9586627E3,5.113925E2,1.9996346E2,2.5590385E2,7.2426324E2,1.8355595E2,1.4623502E3,4.9631244E2,3.6241754E2,1.4897495E2,1.5812247E2,5.661408E2,1.8807744E2,1.2742728E3,3.338691E2,1.6244331E2,1.4460123E2,2.1781633E2,3.061399E2,2.600009E2,5.8467303E2,6.8959973E2,1.691109E2,1.6475822E2,1.638715E2,1.422684E2,1.4816478E2,4.3650827E2,1.6023633E2,5.293634E2,2.385062E2,1.9800208E2,2.2161377E2,3.0774963E2],"tree_param":{"num_deleted":"0","num_feature":"154","num_nodes":"39","size_leaf_vector":"1"}},{"base_weights":[2.9482082E-3,-2.4513137E-1,1.2068668E-1,-4.0830284E-1,-1.7004369E-1,3.7995804E-2,2.7602437E-1,-1.1698401E-2,-8.078109E-3,-2.2102882E-1,-1.0846842E-1,1.0787743E-2,1.2172956E-1,3.3234635E-3,3.1012183E-1,-6.720142E-3,-4.3023145E-3,-9.246457E-4,-3.90393E-3,-3.0908284E-3,2.2661574E-3,4.0529934E-3,1.2639331E-3,2.814645E-1,1.0042821E-2,-3.358355E-2,1.9487035E-2,2.5112802E-1,8.601601E-3,-1.9979E-3,-2.3561935E-3,3.6113877E-3,1.6862168E-3,4.967408E-3,6.742654E-3,-1.8257465E-3,1.4656746E-3,1.5790936E-3,-6.4930005E-4],"categories":[],"categories_nodes":[],"categories_segments":[],"categories_sizes":[],"default_left":[0,0,0,0,0,0,0,0,0,0,0,0,0,0,0,0,0,0,0,0,0,0,0,0,0,0,0,0,0,0,0,0,0,0,0,0,0,0,0],"id":11,"left_children":[1,3,5,7,9,11,13,-1,-1,15,17,19,21,-1,23,-1,-1,-1,-1,25,-1,-1,-1,27,-1,29,31,33,-1,35,-1,37,-1,-1,-1,-1,-1,-1,-1],"loss_changes":[1.101426E2,1.4800095E1,3.2821007E1,2.0944176E0,2.573635E0,3.789951E0,4.0554886E0,0E0,0E0,1.0663509E0,1.4577441E0,1.4967629E0,1.3563886E0,0E0,2.2316818E0,0E0,0E0,0E0,0E0,7.473096E-1,0E0,0E0,0E0,1.3358765E0,0E0,9.532416E-1,5.0160706E-1,5.1966476E-1,0E0,1.5102941E0,0E0,9.372887E-1,0E0,0E0,0E0,0E0,0E0,0E0,0E0],"parents":[2147483647,0,0,1,1,2,2,3,3,4,4,5,5,6,6,9,9,10,10,11,11,12,12,14,14,19,19,23,23,25,25,26,26,27,27,29,29,31,31],"right_children":[2,4,6,8,10,12,14,-1,-1,16,18,20,22,-1,24,-1,-1,-1,-1,26,-1,-1,-1,28,-1,30,32,34,-1,36,-1,38,-1,-1,-1,-1,-1,-1,-1],"split_conditions":[9.333333E0,5.0666666E0,1.62E1,5.8691587E0,8.333333E0,1.45E1,1.5684211E1,-1.1698401E-2,-8.078109E-3,7.25E0,9.75E0,1.6E1,1.2666667E1,3.3234635E-3,2.1666666E1,-6.720142E-3,-4.3023145E-3,-9.246457E-4,-3.90393E-3,1.125E1,2.2661574E-3,4.0529934E-3,1.2639331E-3,1E0,1.0042821E-2,1.1E1,1.4333333E1,1.8333334E1,8.601601E-3,1.0678788E1,-2.3561935E-3,1.31E2,1.6862168E-3,4.967408E-3,6.742654E-3,-1.8257465E-3,1.4656746E-3,1.5790936E-3,-6.4930005E-4],"split_indices":[131,132,133,139,142,131,142,0,0,136,135,136,135,0,133,0,0,0,0,133,0,0,0,151,0,132,135,132,0,139,0,153,0,0,0,0,0,0,0],"split_type":[0,0,0,0,0,0,0,0,0,0,0,0,0,0,0,0,0,0,0,0,0,0,0,0,0,0,0,0,0,0,0,0,0,0,0,0,0,0,0],"sum_hessian":[3.7711738E3,1.2134275E3,2.5577463E3,3.8183502E2,8.3159247E2,1.6697118E3,8.880344E2,1.6654254E2,2.1529248E2,4.538362E2,3.7775626E2,1.2612622E3,4.0844965E2,1.7911479E2,7.089196E2,1.7336469E2,2.8047156E2,1.7031924E2,2.0743703E2,1.0831134E3,1.7814874E2,2.3595193E2,1.7249771E2,5.676041E2,1.413155E2,4.6277997E2,6.203335E2,4.1537018E2,1.5223395E2,3.1406146E2,1.4871849E2,4.763353E2,1.4399818E2,1.8830145E2,2.2706873E2,1.4512337E2,1.689381E2,1.581657E2,3.1816962E2],"tree_param":{"num_deleted":"0","num_feature":"154","num_nodes":"39","size_leaf_vector":"1"}},{"base_weights":[-6.867632E-4,-2.5171342E-1,1.0382976E-1,-3.94876E-1,-1.8350454E-1,2.1430496E-2,2.4903332E-1,-1.1481456E-2,-7.944488E-3,-6.077544E-3,-1.4766695E-1,-7.14147E-3,1.6333115E-1,1.858798E-1,3.5374746E-1,-1.7421862E-1,-2.0266788E-3,-5.5357326E-2,4.7034327E-2,5.286191E-3,2.4057077E-3,2.6822116E-3,2.1457373E-1,7.426532E-3,9.606002E-3,-3.0633314E-3,-4.8462157E-3,-2.6695244E-3,-3.2382634E-2,-8.5413334E-4,7.055255E-2,6.3256896E-3,1.877232E-1,-1.6913151E-6,-1.5062161E-3,9.103936E-2,3.3321948E-4,3.8985831E-3,4.9689966E-3,1.2071308E-3,3.7520002E-3],"categories":[],"categories_nodes":[],"categories_segments":[],"categories_sizes":[],"default_left":[0,0,0,0,0,0,0,0,0,0,0,0,0,0,0,0,0,0,0,0,0,0,0,0,0,0,0,0,0,0,0,0,0,0,0,0,0,0,0,0,0],"id":12,"left_children":[1,3,5,7,9,11,13,-1,-1,-1,15,17,19,21,23,25,-1,27,29,-1,-1,-1,31,-1,-1,-1,-1,-1,33,-1,35,-1,37,-1,-1,39,-1,-1,-1,-1,-1],"loss_changes":[9.992855E1,1.0865967E1,3.2136574E1,1.8248253E0,1.9449959E0,6.9728365E0,6.369564E0,0E0,0E0,0E0,8.126354E-1,3.7302074E0,1.029593E0,1.2283306E0,6.7219543E-1,4.4900322E-1,0E0,9.817872E-1,1.3160064E0,0E0,0E0,0E0,5.6051445E-1,0E0,0E0,0E0,0E0,0E0,5.399791E-1,0E0,5.952382E-1,0E0,1.0460281E-1,0E0,0E0,1.0122533E0,0E0,0E0,0E0,0E0,0E0],"parents":[2147483647,0,0,1,1,2,2,3,3,4,4,5,5,6,6,10,10,11,11,12,12,13,13,14,14,15,15,17,17,18,18,22,22,28,28,30,30,32,32,35,35],"right_children":[2,4,6,8,10,12,14,-1,-1,-1,16,18,20,22,24,26,-1,28,30,-1,-1,-1,32,-1,-1,-1,-1,-1,34,-1,36,-1,38,-1,-1,40,-1,-1,-1,-1,-1],"split_conditions":[9.375E0,5.2272725E0,1.55E1,6.42029E0,8.023529E0,8E0,1.94E1,-1.1481456E-2,-7.944488E-3,-6.077544E-3,1.237569E1,1.20625E1,1.74E2,9E0,1.5E1,9.47205E0,-2.0266788E-3,5E0,7E0,5.286191E-3,2.4057077E-3,2.6822116E-3,1.4716418E1,7.426532E-3,9.606002E-3,-3.0633314E-3,-4.8462157E-3,-2.6695244E-3,8E0,-8.5413334E-4,2.88E2,6.3256896E-3,1.7333334E1,-1.6913151E-6,-1.5062161E-3,1.87E2,3.3321948E-4,3.8985831E-3,4.9689966E-3,1.2071308E-3,3.7520002E-3],"split_indices":[142,142,142,139,139,140,142,0,0,0,139,142,153,5,140,139,0,5,5,0,0,0,139,0,0,0,0,0,5,0,153,0,142,0,0,153,0,0,0,0,0],"split_type":[0,0,0,0,0,0,0,0,0,0,0,0,0,0,0,0,0,0,0,0,0,0,0,0,0,0,0,0,0,0,0,0,0,0,0,0,0,0,0,0,0],"sum_hessian":[3.8079824E3,1.119667E3,2.6883154E3,3.60664E2,7.59003E2,1.715599E3,9.7271643E2,1.4217305E2,2.1849095E2,2.4826915E2,5.107339E2,1.4275054E3,2.8809372E2,6.075676E2,3.6514877E2,3.5637506E2,1.5435883E2,7.5633875E2,6.7116656E2,1.4512476E2,1.4296896E2,1.7332115E2,4.342465E2,2.078254E2,1.5732338E2,1.4587935E2,2.1049571E2,2.1475444E2,5.415843E2,1.4701907E2,5.241475E2,1.450858E2,2.891607E2,2.679524E2,2.736319E2,3.831989E2,1.409486E2,1.4451495E2,1.4464574E2,2.4152414E2,1.4167477E2],"tree_param":{"num_deleted":"0","num_feature":"154","num_nodes":"41","size_leaf_vector":"1"}},{"base_weights":[4.5595635E-3,-2.2560503E-1,1.1019778E-1,-3.5408694E-1,-1.5401669E-1,3.558828E-2,2.8964016E-1,-1.0572976E-2,-6.769227E-3,-5.049597E-3,-1.2450861E-1,-4.5732826E-2,8.530266E-2,2.5738394E-1,9.992561E-3,-1.503325E-1,-2.0097857E-3,-9.928049E-2,8.334964E-4,6.269373E-2,5.2268547E-3,3.500848E-3,2.954138E-1,-5.548213E-3,-1.8097961E-3,-4.2062043E-3,-1.386462E-3,9.074774E-3,1.09836265E-1,6.238579E-3,8.098557E-3,-1.0933629E-3,1.1025188E-3,1.3202307E-3,3.7243008E-3],"categories":[],"categories_nodes":[],"categories_segments":[],"categories_sizes":[],"default_left":[0,0,0,0,0,0,0,0,0,0,0,0,0,0,0,0,0,0,0,0,0,0,0,0,0,0,0,0,0,0,0,0,0,0,0],"id":13,"left_children":[1,3,5,7,9,11,13,-1,-1,-1,15,17,19,21,-1,23,-1,25,-1,27,-1,-1,29,-1,-1,-1,-1,31,33,-1,-1,-1,-1,-1,-1],"loss_changes":[9.1968605E1,1.08839E1,3.4683113E1,2.590435E0,1.2991867E0,7.4118466E0,3.169197E0,0E0,0E0,0E0,4.9751425E-1,3.0166817E0,3.4539824E0,2.5013924E0,0E0,1.8786097E0,0E0,1.3102818E0,0E0,2.45425E0,0E0,0E0,6.0303116E-1,0E0,0E0,0E0,0E0,9.4875693E-1,1.3069844E0,0E0,0E0,0E0,0E0,0E0,0E0],"parents":[2147483647,0,0,1,1,2,2,3,3,4,4,5,5,6,6,10,10,11,11,12,12,13,13,15,15,17,17,19,19,22,22,27,27,28,28],"right_children":[2,4,6,8,10,12,14,-1,-1,-1,16,18,20,22,-1,24,-1,26,-1,28,-1,-1,30,-1,-1,-1,-1,32,34,-1,-1,-1,-1,-1,-1],"split_conditions":[9.4E0,5.6666665E0,1.6318182E1,3.3333333E0,7.4E0,7E0,2.1428572E1,-1.0572976E-2,-6.769227E-3,-5.049597E-3,1.05E1,5E0,1E1,1.7E1,9.992561E-3,1.5E1,-2.0097857E-3,1.15E2,8.334964E-4,1.3E1,5.2268547E-3,3.500848E-3,1.7333334E1,-5.548213E-3,-1.8097961E-3,-4.2062043E-3,-1.386462E-3,1.1E1,1.1153846E1,6.238579E-3,8.098557E-3,-1.0933629E-3,1.1025188E-3,1.3202307E-3,3.7243008E-3],"split_indices":[131,132,142,132,142,5,142,0,0,0,136,140,140,132,0,141,0,153,0,142,0,0,136,0,0,0,0,136,135,0,0,0,0,0,0],"split_type":[0,0,0,0,0,0,0,0,0,0,0,0,0,0,0,0,0,0,0,0,0,0,0,0,0,0,0,0,0,0,0,0,0,0,0],"sum_hessian":[3.7828264E3,1.1896661E3,2.5931604E3,4.2501663E2,7.646495E2,1.8321045E3,7.610559E2,1.7940147E2,2.4561516E2,2.5273444E2,5.11915E2,6.9428265E2,1.1378219E3,6.1287573E2,1.4818016E2,3.0811234E2,2.0380267E2,4.1862662E2,2.7565604E2,9.7588947E2,1.6193243E2,1.588178E2,4.5405798E2,1.4339522E2,1.6471712E2,1.4210367E2,2.7652295E2,4.576927E2,5.181968E2,2.7144913E2,1.8260884E2,1.8386287E2,2.738298E2,2.434269E2,2.7476987E2],"tree_param":{"num_deleted":"0","num_feature":"154","num_nodes":"35","size_leaf_vector":"1"}},{"base_weights":[6.337079E-3,-2.1375795E-1,1.06912255E-1,-3.4520623E-1,-1.3445131E-1,3.317862E-2,2.601469E-1,-1.11758225E-2,-2.823871E-1,-1.7673205E-1,-8.244355E-2,-5.1833183E-2,6.591082E-2,2.2179605E-1,1.0307463E-2,-7.643646E-3,-5.7647214E-3,-3.0879385E-3,-4.8180446E-3,-6.056443E-4,-3.2000307E-3,-1.4988129E-2,-2.8119509E-3,3.9962284E-2,1.1546096E-1,3.4089603E-3,2.4910463E-1,-1.431238E-3,8.899005E-4,1.548997E-2,3.267419E-3,5.0764703E-3,1.5154342E-3,2.8242862E-1,4.044725E-3,3.4038436E-2,-1.2061729E-3,5.570994E-3,8.203503E-3,-1.2690912E-4,2.0500827E-3],"categories":[],"categories_nodes":[],"categories_segments":[],"categories_sizes":[],"default_left":[0,0,0,0,0,0,0,0,0,0,0,0,0,0,0,0,0,0,0,0,0,0,0,0,0,0,0,0,0,0,0,0,0,0,0,0,0,0,0,0,0],"id":14,"left_children":[1,3,5,7,9,11,13,-1,15,17,19,21,23,25,-1,-1,-1,-1,-1,-1,-1,27,-1,29,31,-1,33,-1,-1,35,-1,-1,-1,37,-1,39,-1,-1,-1,-1,-1],"loss_changes":[8.2105835E1,1.207019E1,2.8739475E1,3.3907356E0,1.5677013E0,4.787382E0,5.4773674E0,0E0,3.937111E-1,4.570303E-1,9.626472E-1,1.1627121E0,1.580739E0,1.3973923E0,0E0,0E0,0E0,0E0,0E0,0E0,0E0,7.4123317E-1,0E0,1.9441823E0,2.1362896E0,0E0,1.2548409E0,0E0,0E0,8.0540097E-1,0E0,0E0,0E0,9.8882866E-1,0E0,1.0715373E0,0E0,0E0,0E0,0E0,0E0],"parents":[2147483647,0,0,1,1,2,2,3,3,4,4,5,5,6,6,8,8,9,9,10,10,11,11,12,12,13,13,21,21,23,23,24,24,26,26,29,29,33,33,35,35],"right_children":[2,4,6,8,10,12,14,-1,16,18,20,22,24,26,-1,-1,-1,-1,-1,-1,-1,28,-1,30,32,-1,34,-1,-1,36,-1,-1,-1,38,-1,40,-1,-1,-1,-1,-1],"split_conditions":[9.4E0,5.5E0,1.625E1,3E0,8.833333E0,6E0,2.175E1,-1.11758225E-2,5.4E0,1.2E2,9E0,2.4E1,1.4870968E1,9E0,1.0307463E-2,-7.643646E-3,-5.7647214E-3,-3.0879385E-3,-4.8180446E-3,-6.056443E-4,-3.2000307E-3,1.16E1,-2.8119509E-3,1.425E1,1.5574627E1,3.4089603E-3,1.1E1,-1.431238E-3,8.899005E-4,2.84E2,3.267419E-3,5.0764703E-3,1.5154342E-3,1.8E1,4.044725E-3,1.1E1,-1.2061729E-3,5.570994E-3,8.203503E-3,-1.2690912E-4,2.0500827E-3],"split_indices":[131,131,131,131,134,5,131,0,134,153,3,3,139,5,0,0,0,0,0,0,0,134,0,131,139,0,5,0,0,153,0,0,0,139,0,135,0,0,0,0,0],"split_type":[0,0,0,0,0,0,0,0,0,0,0,0,0,0,0,0,0,0,0,0,0,0,0,0,0,0,0,0,0,0,0,0,0,0,0,0,0,0,0,0,0],"sum_hessian":[3.7094631E3,1.1630725E3,2.5463906E3,4.3703784E2,7.2603467E2,1.7197086E3,8.26682E2,1.4397575E2,2.930621E2,3.992125E2,3.2682214E2,4.7714886E2,1.2425597E3,6.7892303E2,1.4775902E2,1.419049E2,1.511572E2,1.4796591E2,2.5124658E2,1.5828517E2,1.6853699E2,3.088625E2,1.6828639E2,8.170211E2,4.255386E2,1.77558E2,5.0136502E2,1.6671059E2,1.4215189E2,6.547934E2,1.6222772E2,1.4474005E2,2.8079852E2,3.505014E2,1.5086362E2,5.1317535E2,1.4161807E2,2.0322086E2,1.4728055E2,2.9219147E2,2.2098386E2],"tree_param":{"num_deleted":"0","num_feature":"154","num_nodes":"41","size_leaf_vector":"1"}},{"base_weights":[7.4260536E-4,-2.3106673E-1,1.0024518E-1,-9.925954E-3,-1.8910731E-1,4.2132597E-2,2.4728923E-1,-1.5731038E-1,-7.888042E-3,-3.6772334E-3,6.1836332E-2,1.9900058E-1,8.313266E-3,-2.014761E-1,-1.0357378E-1,-8.089185E-5,9.914719E-2,1.6062705E-1,6.695358E-3,-6.5321755E-3,-3.463038E-3,-1.6405653E-3,-3.1385156E-3,-4.9564946E-2,4.7956157E-2,4.2554853E-3,7.867294E-2,2.578858E-3,4.847147E-3,-2.261875E-3,-2.8345778E-4,2.423144E-3,-4.0836053E-4,-7.5211783E-4,1.1292427E-1,2.2039528E-3,4.1785054E-3],"categories":[],"categories_nodes":[],"categories_segments":[],"categories_sizes":[],"default_left":[0,0,0,0,0,0,0,0,0,0,0,0,0,0,0,0,0,0,0,0,0,0,0,0,0,0,0,0,0,0,0,0,0,0,0,0,0],"id":15,"left_children":[1,3,5,-1,7,9,11,13,-1,-1,15,17,-1,19,21,23,25,27,-1,-1,-1,-1,-1,29,31,-1,33,-1,-1,-1,-1,-1,-1,-1,35,-1,-1],"loss_changes":[8.682822E1,8.854668E0,2.248098E1,0E0,4.180519E0,7.3402257E0,3.6749916E0,1.7657661E0,0E0,0E0,3.9797292E0,1.5886345E0,0E0,1.6571121E0,3.1899762E-1,1.5337192E0,1.7421846E0,7.647543E-1,0E0,0E0,0E0,0E0,0E0,5.395603E-1,1.1665068E0,0E0,3.2508726E0,0E0,0E0,0E0,0E0,0E0,0E0,0E0,7.9531384E-1,0E0,0E0],"parents":[2147483647,0,0,1,1,2,2,4,4,5,5,6,6,7,7,10,10,11,11,13,13,14,14,15,15,16,16,17,17,23,23,24,24,26,26,34,34],"right_children":[2,4,6,-1,8,10,12,14,-1,-1,16,18,-1,20,22,24,26,28,-1,-1,-1,-1,-1,30,32,-1,34,-1,-1,-1,-1,-1,-1,-1,36,-1,-1],"split_conditions":[9.363636E0,3.625E0,1.6333334E1,-9.925954E-3,2E0,6.714286E0,2.0083334E1,9.642858E0,-7.888042E-3,-3.6772334E-3,1.2136842E1,1.7210526E1,8.313266E-3,1.5E1,9.535354E0,1.125E1,1.0055555E1,1E1,6.695358E-3,-6.5321755E-3,-3.463038E-3,-1.6405653E-3,-3.1385156E-3,9.3529415E0,1E1,4.2554853E-3,1.2125E1,2.578858E-3,4.847147E-3,-2.261875E-3,-2.8345778E-4,2.423144E-3,-4.0836053E-4,-7.5211783E-4,1E0,2.2039528E-3,4.1785054E-3],"split_indices":[132,132,132,0,4,136,132,136,0,0,139,136,0,141,139,132,132,5,0,0,0,0,0,135,139,0,132,0,0,0,0,0,0,0,151,0,0],"split_type":[0,0,0,0,0,0,0,0,0,0,0,0,0,0,0,0,0,0,0,0,0,0,0,0,0,0,0,0,0,0,0,0,0,0,0,0,0],"sum_hessian":[3.7648167E3,1.1303246E3,2.634492E3,2.0544228E2,9.248823E2,1.8888528E3,7.4563916E2,7.5844275E2,1.6643954E2,1.7083075E2,1.7180221E3,5.0988287E2,2.3575627E2,4.1506354E2,3.433792E2,6.449557E2,1.0730664E3,3.508092E2,1.5907367E2,1.7573944E2,2.3932411E2,1.5919696E2,1.8418225E2,3.1878506E2,3.2617062E2,2.1615424E2,8.569121E2,1.627924E2,1.880168E2,1.4205818E2,1.7672688E2,1.7868475E2,1.4748587E2,2.0210931E2,6.548028E2,5.0058206E2,1.5422076E2],"tree_param":{"num_deleted":"0","num_feature":"154","num_nodes":"37","size_leaf_vector":"1"}},{"base_weights":[1.7120845E-3,-2.0622064E-1,1.0248826E-1,-3.507644E-1,-1.3072714E-1,3.6287233E-2,2.5375393E-1,-1.0833319E-2,-6.436794E-3,-4.461949E-3,-1.0141171E-1,1.5141125E-3,1.0031967E-1,2.198773E-1,9.1794375E-3,-1.1935518E-1,-1.2961872E-3,-7.2851926E-2,3.0470574E-2,1.2943585E-1,7.2322204E-4,3.3354047E-3,2.6132277E-1,-3.6162431E-3,-1.7672221E-3,-2.5611985E-3,-1.0154472E-3,-0E0,8.250841E-2,4.029168E-3,1.0870988E-1,5.0059506E-3,7.320856E-3,2.0029473E-3,-4.0581234E-2,3.8783678E-3,-3.902848E-5,1.8782356E-3,3.2460305E-3,-2.4750675E-3,9.3045714E-4],"categories":[],"categories_nodes":[],"categories_segments":[],"categories_sizes":[],"default_left":[0,0,0,0,0,0,0,0,0,0,0,0,0,0,0,0,0,0,0,0,0,0,0,0,0,0,0,0,0,0,0,0,0,0,0,0,0,0,0,0,0],"id":16,"left_children":[1,3,5,7,9,11,13,-1,-1,-1,15,17,19,21,-1,23,-1,25,27,29,-1,-1,31,-1,-1,-1,-1,33,35,-1,37,-1,-1,-1,39,-1,-1,-1,-1,-1,-1],"loss_changes":[7.707064E1,1.3044128E1,2.4782953E1,3.3767242E0,1.3033581E0,3.8283813E0,3.3489723E0,0E0,0E0,0E0,4.2030478E-1,2.4044735E0,1.2131171E0,1.9263172E0,0E0,5.3813505E-1,0E0,3.142444E-1,1.2834487E0,3.2861948E-1,0E0,0E0,8.802738E-1,0E0,0E0,0E0,0E0,1.7411327E0,2.0599067E0,0E0,2.1331525E-1,0E0,0E0,0E0,1.7638934E0,0E0,0E0,0E0,0E0,0E0,0E0],"parents":[2147483647,0,0,1,1,2,2,3,3,4,4,5,5,6,6,10,10,11,11,12,12,13,13,15,15,17,17,18,18,19,19,22,22,27,27,28,28,30,30,34,34],"right_children":[2,4,6,8,10,12,14,-1,-1,-1,16,18,20,22,-1,24,-1,26,28,30,-1,-1,32,-1,-1,-1,-1,34,36,-1,38,-1,-1,-1,40,-1,-1,-1,-1,-1,-1],"split_conditions":[1E1,5.4615383E0,1.6416666E1,3.3333333E0,7.4E0,1.4870968E1,2.1428572E1,-1.0833319E-2,-6.436794E-3,-4.461949E-3,3.7E1,1.075E1,1.775E1,1.75E1,9.1794375E-3,9.461538E0,-1.2961872E-3,1.0166667E1,1.1333333E1,1.552518E1,7.2322204E-4,3.3354047E-3,1.9E1,-3.6162431E-3,-1.7672221E-3,-2.5611985E-3,-1.0154472E-3,8.785714E0,1.3056338E1,4.029168E-3,1.3857142E1,5.0059506E-3,7.320856E-3,2.0029473E-3,1.3272727E1,3.8783678E-3,-3.902848E-5,1.8782356E-3,3.2460305E-3,-2.4750675E-3,9.3045714E-4],"split_indices":[132,132,142,132,142,139,142,0,0,0,3,132,135,132,0,142,0,139,135,139,0,0,142,0,0,0,0,139,139,0,142,0,0,0,142,0,0,0,0,0,0],"split_type":[0,0,0,0,0,0,0,0,0,0,0,0,0,0,0,0,0,0,0,0,0,0,0,0,0,0,0,0,0,0,0,0,0,0,0,0,0,0,0,0,0],"sum_hessian":[3.678311E3,1.2003853E3,2.4779258E3,4.112436E2,7.8914166E2,1.7241687E3,7.53757E2,1.7389601E2,2.373476E2,2.6432474E2,5.2481696E2,1.1185149E3,6.056538E2,6.0247284E2,1.512842E2,3.7729572E2,1.4752124E2,3.1239554E2,8.061194E2,4.261907E2,1.7946309E2,2.0835695E2,3.9411588E2,2.1447632E2,1.628194E2,1.4159627E2,1.7079927E2,5.0772717E2,2.983922E2,1.4170837E2,2.8448233E2,1.9444687E2,1.9966899E2,1.6406213E2,3.4366504E2,1.5235869E2,1.4603351E2,1.4187273E2,1.4260959E2,1.915723E2,1.5209274E2],"tree_param":{"num_deleted":"0","num_feature":"154","num_nodes":"41","size_leaf_vector":"1"}},{"base_weights":[-2.6516784E-3,-2.1018618E-1,1.01845115E-1,-3.8599744E-1,-1.5116155E-1,3.565086E-2,2.7506995E-1,-1.049818E-2,-7.6696044E-3,-6.139917E-3,-1.1632683E-1,-5.1931576E-3,8.893247E-2,2.0326418E-1,3.3666128E-1,-1.2345773E-3,-1.403697E-1,3.6429707E-2,-4.706793E-2,5.202525E-2,1.4682244E-1,5.596384E-3,4.0422073E-3,6.312074E-3,9.554078E-3,-4.705857E-3,-1.8531663E-3,2.1143295E-3,-4.4869693E-4,-8.5033245E-2,3.1761115E-4,2.2782605E-2,2.7207695E-3,4.2333067E-3,2.5790506E-3,-8.383646E-4,-2.983303E-3,1.5038338E-3,-4.252147E-4],"categories":[],"categories_nodes":[],"categories_segments":[],"categories_sizes":[],"default_left":[0,0,0,0,0,0,0,0,0,0,0,0,0,0,0,0,0,0,0,0,0,0,0,0,0,0,0,0,0,0,0,0,0,0,0,0,0,0,0],"id":17,"left_children":[1,3,5,7,9,11,13,-1,-1,-1,15,17,19,21,23,-1,25,27,29,31,33,-1,-1,-1,-1,-1,-1,-1,-1,35,-1,37,-1,-1,-1,-1,-1,-1,-1],"loss_changes":[8.127684E1,1.2963375E1,2.854021E1,1.0272255E0,3.5011215E0,3.9339314E0,2.981083E0,0E0,0E0,0E0,1.0778036E0,1.7789125E0,1.6526198E0,2.964115E-1,1.6507416E0,0E0,1.8434706E0,1.5020218E0,1.1782207E0,8.677614E-1,3.3589077E-1,0E0,0E0,0E0,0E0,0E0,0E0,0E0,0E0,6.214168E-1,0E0,5.508391E-1,0E0,0E0,0E0,0E0,0E0,0E0,0E0],"parents":[2147483647,0,0,1,1,2,2,3,3,4,4,5,5,6,6,10,10,11,11,12,12,13,13,14,14,16,16,17,17,18,18,19,19,20,20,29,29,31,31],"right_children":[2,4,6,8,10,12,14,-1,-1,-1,16,18,20,22,24,-1,26,28,30,32,34,-1,-1,-1,-1,-1,-1,-1,-1,36,-1,38,-1,-1,-1,-1,-1,-1,-1],"split_conditions":[1E1,5.1666665E0,1.72E1,3.7666667E0,6.1666665E0,1.34E1,1.8529411E1,-1.049818E-2,-7.6696044E-3,-6.139917E-3,7.233333E0,1E0,1.5166667E1,1.66E1,2.0666666E1,-1.2345773E-3,8.8E0,1.26E1,1.0966666E1,2.61E2,1.15E1,5.596384E-3,4.0422073E-3,6.312074E-3,9.554078E-3,-4.705857E-3,-1.8531663E-3,2.1143295E-3,-4.4869693E-4,1E0,3.1761115E-4,1.38E1,2.7207695E-3,4.2333067E-3,2.5790506E-3,-8.383646E-4,-2.983303E-3,1.5038338E-3,-4.252147E-4],"split_indices":[142,134,133,134,142,133,134,0,0,0,134,141,142,134,133,0,133,134,134,153,135,0,0,0,0,0,0,0,0,138,0,134,0,0,0,0,0,0,0],"split_type":[0,0,0,0,0,0,0,0,0,0,0,0,0,0,0,0,0,0,0,0,0,0,0,0,0,0,0,0,0,0,0,0,0,0,0,0,0,0,0],"sum_hessian":[3.7470566E3,1.2551694E3,2.4918872E3,3.1489536E2,9.402742E2,1.8034606E3,6.884266E2,1.622997E2,1.5259564E2,2.2811954E2,7.121546E2,1.0197981E3,7.8366254E2,3.1884128E2,3.695853E2,1.9537302E2,5.167816E2,5.1016626E2,5.0963184E2,4.7979385E2,3.0386865E2,1.5603232E2,1.6280894E2,1.815693E2,1.8801599E2,2.6530283E2,2.5147876E2,2.6193616E2,2.4823012E2,3.141606E2,1.9547122E2,3.2877002E2,1.5102385E2,1.6302678E2,1.4084187E2,1.4335878E2,1.7080185E2,1.656762E2,1.6309383E2],"tree_param":{"num_deleted":"0","num_feature":"154","num_nodes":"39","size_leaf_vector":"1"}},{"base_weights":[-1.9972199E-3,-2.0995738E-1,9.7134426E-2,-3.5457706E-1,-1.464801E-1,1.9953167E-2,2.2070831E-1,-5.9746564E-3,-1.0141152E-2,-1.6790383E-1,-1.7324485E-3,-3.100551E-3,3.9204247E-2,1.6417196E-1,3.3151397E-1,-1.3696688E-1,-4.9034255E-3,-1.387649E-3,5.930142E-2,2.0836765E-1,2.6303373E-4,6.6353623E-3,9.4248485E-3,-4.4595124E-3,-1.8009228E-3,2.9193833E-2,1.00665465E-1,3.8577546E-3,6.077678E-3,2.6474423E-3,5.204069E-3,1.4895502E-3,3.6164557E-3,8.825075E-4,-1.2568686E-3],"categories":[],"categories_nodes":[],"categories_segments":[],"categories_sizes":[],"default_left":[0,0,0,0,0,0,0,0,0,0,0,0,0,0,0,0,0,0,0,0,0,0,0,0,0,0,0,0,0,0,0,0,0,0,0],"id":18,"left_children":[1,3,5,7,9,11,13,-1,-1,15,-1,-1,17,19,21,23,-1,-1,25,27,-1,-1,-1,-1,-1,29,31,-1,-1,-1,33,-1,-1,-1,-1],"loss_changes":[7.710621E1,1.1026924E1,2.4124094E1,2.6907845E0,1.2920475E0,4.520947E0,6.037075E0,0E0,0E0,7.477188E-1,0E0,0E0,2.720316E0,4.3399506E0,1.0362625E0,1.111238E0,0E0,0E0,1.41644E0,1.0493183E0,0E0,0E0,0E0,0E0,0E0,1.3085899E0,9.246106E-1,0E0,0E0,0E0,9.6622515E-1,0E0,0E0,0E0,0E0],"parents":[2147483647,0,0,1,1,2,2,3,3,4,4,5,5,6,6,9,9,12,12,13,13,14,14,15,15,18,18,19,19,25,25,26,26,30,30],"right_children":[2,4,6,8,10,12,14,-1,-1,16,-1,-1,18,20,22,24,-1,-1,26,28,-1,-1,-1,-1,-1,30,32,-1,-1,-1,34,-1,-1,-1,-1],"split_conditions":[1E1,5.5E0,1.5333333E1,2.1E1,6.3E1,7.25E0,1.97E1,-5.9746564E-3,-1.0141152E-2,1.87E2,-1.7324485E-3,-3.100551E-3,5E0,1E0,2.1666666E1,5E0,-4.9034255E-3,-1.387649E-3,1.3272727E1,1.7125E1,2.6303373E-4,6.6353623E-3,9.4248485E-3,-4.4595124E-3,-1.8009228E-3,1.0571428E1,1.3571428E1,3.8577546E-3,6.077678E-3,2.6474423E-3,1.3666667E1,1.4895502E-3,3.6164557E-3,8.825075E-4,-1.2568686E-3],"split_indices":[142,142,142,141,141,135,142,0,0,153,0,0,5,149,142,5,0,0,142,142,0,0,0,0,0,142,135,0,0,0,135,0,0,0,0],"split_type":[0,0,0,0,0,0,0,0,0,0,0,0,0,0,0,0,0,0,0,0,0,0,0,0,0,0,0,0,0,0,0,0,0,0,0],"sum_hessian":[3.7394485E3,1.2074369E3,2.5320117E3,3.6766983E2,8.3976715E2,1.5591659E3,9.7284576E2,1.5492717E2,2.1274265E2,6.4861975E2,1.9114737E2,1.7569617E2,1.3834697E3,6.4496155E2,3.2788422E2,3.643437E2,2.8427606E2,2.3485884E2,1.1486108E3,4.9989035E2,1.4507123E2,1.8648976E2,1.4139447E2,1.965145E2,1.678292E2,6.663403E2,4.8227057E2,2.5912576E2,2.4076459E2,1.4884515E2,5.174951E2,2.8095065E2,2.013199E2,3.3502808E2,1.8246706E2],"tree_param":{"num_deleted":"0","num_feature":"154","num_nodes":"35","size_leaf_vector":"1"}},{"base_weights":[-7.174878E-3,-2.1978481E-1,8.922804E-2,-3.745778E-1,-1.6214247E-1,2.3374816E-2,2.5643975E-1,-1.0597761E-2,-7.318788E-3,-6.3691563E-3,-1.3563626E-1,-3.281595E-2,8.0569305E-2,2.1025765E-1,8.549354E-3,-1.0774894E-1,-5.258712E-3,-7.7906914E-2,2.8567152E-2,-2.4738665E-5,1.0015451E-1,1.6944656E-1,7.232797E-3,-3.3371774E-3,-1.7891818E-3,-1.144197E-1,-4.5891956E-4,1.562416E-3,-3.3130744E-4,4.580241E-3,7.7331506E-2,3.0913071E-3,4.971842E-3,-1.9996748E-3,-3.5382416E-3,3.1639952E-2,3.4736383E-3,1.4060494E-3,-1.8667159E-4],"categories":[],"categories_nodes":[],"categories_segments":[],"categories_sizes":[],"default_left":[0,0,0,0,0,0,0,0,0,0,0,0,0,0,0,0,0,0,0,0,0,0,0,0,0,0,0,0,0,0,0,0,0,0,0,0,0,0,0],"id":19,"left_children":[1,3,5,7,9,11,13,-1,-1,-1,15,17,19,21,-1,23,-1,25,27,-1,29,31,-1,-1,-1,33,-1,-1,-1,-1,35,-1,-1,-1,-1,37,-1,-1,-1],"loss_changes":[7.690637E1,1.0382946E1,2.838825E1,1.4224434E0,2.3722687E0,5.957848E0,3.455223E0,0E0,0E0,0E0,1.6150055E0,2.5889807E0,1.4793062E0,1.9139595E0,0E0,5.306883E-1,0E0,1.1375685E0,6.3386834E-1,0E0,1.5501642E0,5.2188206E-1,0E0,0E0,0E0,3.2109356E-1,0E0,0E0,0E0,0E0,1.8745351E0,0E0,0E0,0E0,0E0,4.0175715E-1,0E0,0E0,0E0],"parents":[2147483647,0,0,1,1,2,2,3,3,4,4,5,5,6,6,10,10,11,11,12,12,13,13,15,15,17,17,18,18,20,20,21,21,25,25,30,30,35,35],"right_children":[2,4,6,8,10,12,14,-1,-1,-1,16,18,20,22,-1,24,-1,26,28,-1,30,32,-1,-1,-1,34,-1,-1,-1,-1,36,-1,-1,-1,-1,38,-1,-1,-1],"split_conditions":[9.4E0,4.5E0,1.6416666E1,3.2E0,5.8333335E0,1.3E1,1.5E1,-1.0597761E-2,-7.318788E-3,-6.3691563E-3,2.92E2,4E0,1.1366667E1,2.0052631E1,8.549354E-3,8.833333E0,-5.258712E-3,1.1666667E1,1.15E1,-2.4738665E-5,8.2E1,1.75E1,7.232797E-3,-3.3371774E-3,-1.7891818E-3,2.12E2,-4.5891956E-4,1.562416E-3,-3.3130744E-4,4.580241E-3,1.5E1,3.0913071E-3,4.971842E-3,-1.9996748E-3,-3.5382416E-3,6E0,3.4736383E-3,1.4060494E-3,-1.8667159E-4],"split_indices":[131,131,142,132,134,131,140,0,0,0,153,140,134,142,0,134,0,134,142,0,153,131,0,0,0,153,0,0,0,0,132,0,0,0,0,140,0,0,0],"split_type":[0,0,0,0,0,0,0,0,0,0,0,0,0,0,0,0,0,0,0,0,0,0,0,0,0,0,0,0,0,0,0,0,0,0,0,0,0,0,0],"sum_hessian":[3.7513606E3,1.170622E3,2.5807385E3,3.1699594E2,8.536259E2,1.8520768E3,7.286618E2,1.4872557E2,1.6827039E2,1.6864687E2,6.8497906E2,9.3331555E2,9.187613E2,5.0651364E2,2.2214815E2,5.19063E2,1.6591609E2,5.3905054E2,3.9426498E2,1.7677185E2,7.4198944E2,3.555593E2,1.5095433E2,2.5361668E2,2.654463E2,3.3076807E2,2.0828249E2,2.1108614E2,1.8317885E2,1.4475697E2,5.972325E2,1.831176E2,1.724417E2,1.8013158E2,1.5063647E2,3.6112927E2,2.3610321E2,2.1372054E2,1.4740872E2],"tree_param":{"num_deleted":"0","num_feature":"154","num_nodes":"39","size_leaf_vector":"1"}},{"base_weights":[-9.041312E-4,-1.6893682E-1,1.2439768E-1,-3.465224E-1,-1.007711E-1,5.359853E-2,2.658495E-1,-1.0659291E-2,-2.948514E-1,-1.6711785E-1,-6.104062E-2,7.4347615E-2,-1.5720077E-3,2.2104685E-1,9.152008E-3,-7.866227E-3,-6.1274962E-3,-5.063205E-3,-3.3044878E-3,-9.622534E-2,-1.5292336E-4,4.1028507E-2,1.6928837E-1,3.765563E-3,2.5587186E-1,-8.7374274E-4,-3.0281467E-3,1.149284E-3,8.921611E-2,4.842631E-3,3.118336E-3,6.713823E-3,5.2120374E-3,-8.3954347E-4,2.353419E-2,3.5196827E-3,3.588937E-4,-1.4304591E-4,1.3431034E-3],"categories":[],"categories_nodes":[],"categories_segments":[],"categories_sizes":[],"default_left":[0,0,0,0,0,0,0,0,0,0,0,0,0,0,0,0,0,0,0,0,0,0,0,0,0,0,0,0,0,0,0,0,0,0,0,0,0,0,0],"id":20,"left_children":[1,3,5,7,9,11,13,-1,15,17,19,21,-1,23,-1,-1,-1,-1,-1,25,-1,27,29,-1,31,-1,-1,33,35,-1,-1,-1,-1,-1,37,-1,-1,-1,-1],"loss_changes":[7.780234E1,1.9060009E1,2.1158344E1,2.2526398E0,2.9834213E0,3.514501E0,3.7427368E0,0E0,3.238201E-1,5.085077E-1,1.3621824E0,3.7848783E0,0E0,1.0644302E0,0E0,0E0,0E0,0E0,0E0,7.968712E-1,0E0,1.7045271E0,3.747902E-1,0E0,2.6587677E-1,0E0,0E0,3.9988607E-1,1.7555196E0,0E0,0E0,0E0,0E0,0E0,3.054735E-1,0E0,0E0,0E0,0E0],"parents":[2147483647,0,0,1,1,2,2,3,3,4,4,5,5,6,6,8,8,9,9,10,10,11,11,13,13,19,19,21,21,22,22,24,24,27,27,28,28,34,34],"right_children":[2,4,6,8,10,12,14,-1,16,18,20,22,-1,24,-1,-1,-1,-1,-1,26,-1,28,30,-1,32,-1,-1,34,36,-1,-1,-1,-1,-1,38,-1,-1,-1,-1],"split_conditions":[1.1E1,5.5E0,1.72E1,3E0,8.083333E0,1E0,2.1333334E1,-1.0659291E-2,7.5E0,5.9666667E0,9.75E0,1.52E1,-1.5720077E-3,1E1,9.152008E-3,-7.866227E-3,-6.1274962E-3,-5.063205E-3,-3.3044878E-3,9.583333E0,-1.5292336E-4,1.2875E1,1.45E1,3.765563E-3,1.94E1,-8.7374274E-4,-3.0281467E-3,1.1E1,9E0,4.842631E-3,3.118336E-3,6.713823E-3,5.2120374E-3,-8.3954347E-4,1.0714286E1,3.5196827E-3,3.588937E-4,-1.4304591E-4,1.3431034E-3],"split_indices":[133,131,133,131,134,149,133,0,139,134,131,131,0,5,0,0,0,0,0,135,0,132,134,0,131,0,0,132,5,0,0,0,0,0,135,0,0,0,0],"split_type":[0,0,0,0,0,0,0,0,0,0,0,0,0,0,0,0,0,0,0,0,0,0,0,0,0,0,0,0,0,0,0,0,0,0,0,0,0,0,0],"sum_hessian":[3.6948184E3,1.5786414E3,2.1161768E3,4.373388E2,1.1413026E3,1.4108861E3,7.052908E2,1.4449222E2,2.9284662E2,4.263493E2,7.149533E2,1.2036832E3,2.0720288E2,5.1523846E2,1.9005232E2,1.4181581E2,1.5103079E2,1.5636165E2,2.6998764E2,4.3348798E2,2.814653E2,8.9192316E2,3.1176007E2,1.8662526E2,3.286132E2,1.5216821E2,2.8131976E2,4.8929767E2,4.0262546E2,1.5913387E2,1.5262619E2,1.8296593E2,1.4564725E2,1.838244E2,3.0547327E2,2.2247704E2,1.8014844E2,1.5989127E2,1.45582E2],"tree_param":{"num_deleted":"0","num_feature":"154","num_nodes":"39","size_leaf_vector":"1"}},{"base_weights":[9.954532E-4,-1.6360372E-1,1.3164032E-1,-3.0899212E-1,-9.017669E-2,7.779146E-2,2.9550502E-1,-1.0024381E-2,-2.6443896E-1,-6.4966515E-2,-5.381331E-3,4.9718987E-2,1.524951E-1,5.1088254E-3,3.4915304E-1,-5.1668067E-3,-7.390587E-3,-4.3060496E-3,-4.1662544E-2,3.5736497E-2,2.65234E-3,2.916375E-3,4.713219E-3,9.346173E-3,7.0197354E-3,1.2045422E-3,-6.377543E-2,1.8320343E-2,2.0205008E-3,-2.6745014E-3,-4.0934436E-2,-2.4853306E-2,5.107696E-2,-1.7452352E-4,-2.5250968E-3,-5.267126E-5,-1.1316866E-3,6.932138E-5,2.0350118E-3],"categories":[],"categories_nodes":[],"categories_segments":[],"categories_sizes":[],"default_left":[0,0,0,0,0,0,0,0,0,0,0,0,0,0,0,0,0,0,0,0,0,0,0,0,0,0,0,0,0,0,0,0,0,0,0,0,0,0,0],"id":21,"left_children":[1,3,5,7,9,11,13,-1,15,17,-1,19,21,-1,23,-1,-1,-1,25,27,-1,-1,-1,-1,-1,-1,29,31,-1,-1,33,35,37,-1,-1,-1,-1,-1,-1],"loss_changes":[7.859011E1,1.7215866E1,1.7940624E1,2.6798744E0,3.6836205E0,3.195734E0,2.085907E0,0E0,7.9948044E-1,2.451683E0,0E0,9.5674205E-1,5.341778E-1,0E0,6.359558E-1,0E0,0E0,0E0,1.5541588E0,7.7803123E-1,0E0,0E0,0E0,0E0,0E0,0E0,6.7231154E-1,9.614885E-1,0E0,0E0,9.152869E-1,1.4580841E-1,6.401999E-1,0E0,0E0,0E0,0E0,0E0,0E0],"parents":[2147483647,0,0,1,1,2,2,3,3,4,4,5,5,6,6,8,8,9,9,11,11,12,12,14,14,18,18,19,19,26,26,27,27,30,30,31,31,32,32],"right_children":[2,4,6,8,10,12,14,-1,16,18,-1,20,22,-1,24,-1,-1,-1,26,28,-1,-1,-1,-1,-1,-1,30,32,-1,-1,34,36,38,-1,-1,-1,-1,-1,-1],"split_conditions":[1.12E1,6.4E0,1.86E1,3.2E0,1E0,1.6E1,1.6E1,-1.0024381E-2,1E0,7.6E0,-5.381331E-3,7E0,1.1E1,5.1088254E-3,1.0066667E1,-5.1668067E-3,-7.390587E-3,-4.3060496E-3,8.287356E0,1.56E1,2.65234E-3,2.916375E-3,4.713219E-3,9.346173E-3,7.0197354E-3,1.2045422E-3,1.075E1,1.3E1,2.0205008E-3,-2.6745014E-3,1.4333333E1,1.2590551E1,1.3288889E1,-1.7452352E-4,-2.5250968E-3,-5.267126E-5,-1.1316866E-3,6.932138E-5,2.0350118E-3],"split_indices":[133,131,133,131,4,131,136,0,4,131,0,141,140,0,135,0,0,0,139,136,0,0,0,0,0,0,139,131,0,0,135,139,139,0,0,0,0,0,0],"split_type":[0,0,0,0,0,0,0,0,0,0,0,0,0,0,0,0,0,0,0,0,0,0,0,0,0,0,0,0,0,0,0,0,0,0,0,0,0,0,0],"sum_hessian":[3.6546396E3,1.6167986E3,2.037841E3,5.4195483E2,1.0748438E3,1.5343988E3,5.0344214E2,1.5097458E2,3.9098026E2,9.087035E2,1.6614032E2,1.1164408E3,4.17958E2,2.0351965E2,2.999225E2,2.0011143E2,1.908688E2,1.5015056E2,7.585529E2,9.133597E2,2.030811E2,2.5818466E2,1.5977335E2,1.5924548E2,1.40677E2,1.4534383E2,6.132091E2,6.777159E2,2.3564378E2,1.9283528E2,4.203738E2,2.9097455E2,3.8674136E2,2.794175E2,1.4095631E2,1.4890274E2,1.420718E2,1.6380096E2,2.2294038E2],"tree_param":{"num_deleted":"0","num_feature":"154","num_nodes":"39","size_leaf_vector":"1"}},{"base_weights":[-5.834867E-4,-2.418872E-1,7.1673974E-2,-3.4271324E-1,-1.4248781E-1,1.957624E-3,2.240959E-1,-1.0265713E-2,-6.681991E-3,-4.893466E-3,-1.0992092E-1,-4.4325948E-2,5.2292954E-2,1.9348568E-1,8.919748E-3,-3.23583E-3,-1.9447362E-3,-3.116661E-2,-2.703511E-3,2.271661E-2,1.05860144E-1,1.4364642E-1,2.5444523E-1,-5.0167996E-2,1.3940388E-3,1.9384981E-3,-2.9432038E-3,1.8736859E-3,3.1263782E-3,2.4602145E-3,4.284224E-3,5.1413253E-3,6.666962E-3,-7.544261E-2,-1.4105595E-4,-9.6557743E-4,9.038637E-4,-2.656444E-3,-2.1226039E-4],"categories":[],"categories_nodes":[],"categories_segments":[],"categories_sizes":[],"default_left":[0,0,0,0,0,0,0,0,0,0,0,0,0,0,0,0,0,0,0,0,0,0,0,0,0,0,0,0,0,0,0,0,0,0,0,0,0,0,0],"id":22,"left_children":[1,3,5,7,9,11,13,-1,-1,-1,15,17,19,21,-1,-1,-1,23,-1,25,27,29,31,33,-1,-1,35,-1,-1,-1,-1,-1,-1,37,-1,-1,-1,-1,-1],"loss_changes":[6.381171E1,8.396915E0,2.9891714E1,2.210659E0,8.5377216E-1,4.5027227E0,4.059326E0,0E0,0E0,0E0,1.8638802E-1,9.0877354E-1,1.4543753E0,2.19133E0,0E0,0E0,0E0,1.4497433E0,0E0,9.170724E-1,2.063272E-1,5.702534E-1,2.7542877E-1,7.745391E-1,0E0,0E0,6.482452E-1,0E0,0E0,0E0,0E0,0E0,0E0,1.0732713E0,0E0,0E0,0E0,0E0,0E0],"parents":[2147483647,0,0,1,1,2,2,3,3,4,4,5,5,6,6,10,10,11,11,12,12,13,13,17,17,19,19,20,20,21,21,22,22,23,23,26,26,33,33],"right_children":[2,4,6,8,10,12,14,-1,-1,-1,16,18,20,22,-1,-1,-1,24,-1,26,28,30,32,34,-1,-1,36,-1,-1,-1,-1,-1,-1,38,-1,-1,-1,-1,-1],"split_conditions":[8E0,6.3333335E0,1.6E1,3.5E0,6E0,1.24E1,1.8E1,-1.0265713E-2,-6.681991E-3,-4.893466E-3,9E0,1.4888889E1,1.45E1,1.8142857E1,8.919748E-3,-3.23583E-3,-1.9447362E-3,1.3288889E1,-2.703511E-3,1.32E1,1.552518E1,1.72E1,1.975E1,1.075E1,1.3940388E-3,1.9384981E-3,1.4095238E1,1.8736859E-3,3.1263782E-3,2.4602145E-3,4.284224E-3,5.1413253E-3,6.666962E-3,1.06114645E1,-1.4105595E-4,-9.6557743E-4,9.038637E-4,-2.656444E-3,-2.1226039E-4],"split_indices":[131,142,133,131,131,131,140,0,0,0,136,135,132,142,0,0,0,139,0,131,139,131,133,132,0,0,139,0,0,0,0,0,0,139,0,0,0,0,0],"split_type":[0,0,0,0,0,0,0,0,0,0,0,0,0,0,0,0,0,0,0,0,0,0,0,0,0,0,0,0,0,0,0,0,0,0,0,0,0,0,0],"sum_hessian":[3.6585415E3,8.433689E2,2.8151726E3,4.1803366E2,4.253352E2,1.9321979E3,8.8297485E2,1.6604236E2,2.519913E2,1.418576E2,2.834776E2,1.0055148E3,9.2668304E2,7.36269E2,1.467059E2,1.4223244E2,1.4124518E2,8.475499E2,1.5796486E2,5.984059E2,3.282772E2,4.062172E2,3.300518E2,7.008841E2,1.4666582E2,1.8221361E2,4.1619226E2,1.6473628E2,1.635409E2,1.9831882E2,2.0789836E2,1.4115297E2,1.888988E2,4.4436404E2,2.5652005E2,2.1808978E2,1.981025E2,2.8504648E2,1.5931757E2],"tree_param":{"num_deleted":"0","num_feature":"154","num_nodes":"39","size_leaf_vector":"1"}},{"base_weights":[-7.929686E-3,-1.9441451E-1,8.1647195E-2,-8.985519E-3,-1.5159172E-1,2.3465434E-2,2.255612E-1,-5.5403328E-3,-1.2506701E-1,-2.5859313E-2,8.0965206E-2,1.9183443E-1,8.418095E-3,-4.2039608E-3,-9.89219E-2,8.010722E-3,-1.04219995E-1,1.0374381E-1,4.3998848E-4,3.7285506E-3,2.1555428E-1,-3.6435288E-3,-7.5417764E-2,-1.7374681E-2,1.4900824E-3,-3.0887197E-3,-1.8310468E-3,1.2455214E-1,8.543017E-4,4.691413E-3,5.5353856E-3,-2.436787E-3,-8.545883E-4,-1.616958E-3,1.0209059E-3,3.559089E-3,2.5233713E-3],"categories":[],"categories_nodes":[],"categories_segments":[],"categories_sizes":[],"default_left":[0,0,0,0,0,0,0,0,0,0,0,0,0,0,0,0,0,0,0,0,0,0,0,0,0,0,0,0,0,0,0,0,0,0,0,0,0],"id":23,"left_children":[1,3,5,-1,7,9,11,-1,13,15,17,19,-1,-1,21,23,25,27,-1,-1,29,-1,31,33,-1,-1,-1,35,-1,-1,-1,-1,-1,-1,-1,-1,-1],"loss_changes":[6.153781E1,9.415852E0,2.0802437E1,0E0,2.0832424E0,5.0320487E0,3.0734215E0,0E0,9.795704E-1,2.5394964E0,1.1508932E0,4.2059135E-1,0E0,0E0,6.1162424E-1,9.315406E-1,1.8044591E-1,8.255429E-1,0E0,0E0,5.5817604E-2,0E0,3.6013925E-1,1.3992454E0,0E0,0E0,0E0,1.8267345E-1,0E0,0E0,0E0,0E0,0E0,0E0,0E0,0E0,0E0],"parents":[2147483647,0,0,1,1,2,2,4,4,5,5,6,6,8,8,9,9,10,10,11,11,14,14,15,15,16,16,17,17,20,20,22,22,23,23,27,27],"right_children":[2,4,6,-1,8,10,12,-1,14,16,18,20,-1,-1,22,24,26,28,-1,-1,30,-1,32,34,-1,-1,-1,36,-1,-1,-1,-1,-1,-1,-1,-1,-1],"split_conditions":[9.875E0,4.5E0,1.65E1,-8.985519E-3,6.3333335E0,1.375E1,2.1428572E1,-5.5403328E-3,4E0,3E0,7E0,1.8041666E1,8.418095E-3,-4.2039608E-3,1E0,2E0,1.1E1,1E0,4.3998848E-4,3.7285506E-3,1.97E1,-3.6435288E-3,1.5E1,1.15E1,1.4900824E-3,-3.0887197E-3,-1.8310468E-3,1.15E1,8.543017E-4,4.691413E-3,5.5353856E-3,-2.436787E-3,-8.545883E-4,-1.616958E-3,1.0209059E-3,3.559089E-3,2.5233713E-3],"split_indices":[142,142,142,0,142,139,142,0,5,141,3,142,0,0,3,138,3,149,0,0,142,0,141,135,0,0,0,135,0,0,0,0,0,0,0,0,0],"split_type":[0,0,0,0,0,0,0,0,0,0,0,0,0,0,0,0,0,0,0,0,0,0,0,0,0,0,0,0,0,0,0,0,0,0,0,0,0],"sum_hessian":[3.6829539E3,1.1954008E3,2.487553E3,2.239551E2,9.714457E2,1.7720115E3,7.155416E2,2.3533336E2,7.361123E2,9.5283905E2,8.191725E2,5.689972E2,1.4654439E2,2.4315321E2,4.9295908E2,6.643907E2,2.8844833E2,5.9875903E2,2.2041342E2,2.3458716E2,3.3441006E2,1.4611331E2,3.4684576E2,4.5311304E2,2.1127763E2,1.4374077E2,1.4470757E2,4.566582E2,1.4210081E2,1.7485643E2,1.5955362E2,2.0237738E2,1.4446838E2,2.4696985E2,2.061432E2,1.847978E2,2.718604E2],"tree_param":{"num_deleted":"0","num_feature":"154","num_nodes":"37","size_leaf_vector":"1"}},{"base_weights":[1.7768375E-3,-7.41822E-2,1.9998224E-1,-3.304778E-1,-3.474921E-2,1.3623147E-1,2.8182024E-1,-1.0143952E-2,-6.2035974E-3,-1.0631965E-1,1.47394575E-2,1.9173392E-3,1.6599217E-1,2.4548142E-1,8.409531E-3,-4.223672E-3,-9.315617E-2,-3.373469E-3,2.3922545E-3,2.8576497E-3,4.5813015E-3,4.7022267E-3,6.802811E-3,-1.1227169E-1,-9.942047E-4,-5.3292148E-2,3.0766774E-2,-1.3773008E-1,-1.2633955E-3,4.9895927E-4,-2.5332505E-3,8.5917255E-3,2.0334967E-3,-2.2940333E-3,-4.5298496E-3,-8.7596034E-4,9.0025325E-4],"categories":[],"categories_nodes":[],"categories_segments":[],"categories_sizes":[],"default_left":[0,0,0,0,0,0,0,0,0,0,0,0,0,0,0,0,0,0,0,0,0,0,0,0,0,0,0,0,0,0,0,0,0,0,0,0,0],"id":24,"left_children":[1,3,5,7,9,11,13,-1,-1,15,17,-1,19,21,-1,-1,23,25,-1,-1,-1,-1,-1,27,-1,29,31,33,-1,-1,-1,35,-1,-1,-1,-1,-1],"loss_changes":[5.5145653E1,2.6711739E1,5.247074E0,2.2806778E0,8.136848E0,9.1188335E-1,1.1110077E0,0E0,0E0,8.60425E-1,2.129862E0,0E0,4.2548943E-1,5.274868E-1,0E0,0E0,7.6093674E-1,1.9106569E0,0E0,0E0,0E0,0E0,0E0,8.448906E-1,0E0,1.8310087E0,8.0118906E-1,8.4718513E-1,0E0,0E0,0E0,6.374079E-1,0E0,0E0,0E0,0E0,0E0],"parents":[2147483647,0,0,1,1,2,2,3,3,4,4,5,5,6,6,9,9,10,10,12,12,13,13,16,16,17,17,23,23,25,25,26,26,27,27,31,31],"right_children":[2,4,6,8,10,12,14,-1,-1,16,18,-1,20,22,-1,-1,24,26,-1,-1,-1,-1,-1,28,-1,30,32,34,-1,-1,-1,36,-1,-1,-1,-1,-1],"split_conditions":[1.5E1,5.5E0,1.8333334E1,3.5E0,1E1,1.52E1,2.1333334E1,-1.0143952E-2,-6.2035974E-3,5.5E0,8E0,1.9173392E-3,1.6333334E1,1.66E1,8.409531E-3,-4.223672E-3,1.15E1,1.1333333E1,2.3922545E-3,2.8576497E-3,4.5813015E-3,4.7022267E-3,6.802811E-3,2.7E2,-9.942047E-4,1.78E2,1E0,2E0,-1.2633955E-3,4.9895927E-4,-2.5332505E-3,1.0666667E1,2.0334967E-3,-2.2940333E-3,-4.5298496E-3,-8.7596034E-4,9.0025325E-4],"split_indices":[142,142,133,142,133,133,133,0,0,133,140,0,132,136,0,0,136,132,0,0,0,0,0,153,0,153,148,140,0,0,0,136,0,0,0,0,0],"split_type":[0,0,0,0,0,0,0,0,0,0,0,0,0,0,0,0,0,0,0,0,0,0,0,0,0,0,0,0,0,0,0,0,0,0,0,0,0],"sum_hessian":[3.66175E3,2.6468916E3,1.0148583E3,3.524888E2,2.2944028E3,5.7134204E2,4.4351624E2,1.440933E2,2.083955E2,9.387833E2,1.3556195E3,2.0140962E2,3.6993243E2,2.97893E2,1.4562325E2,1.4352206E2,7.952613E2,1.1195294E3,2.3609006E2,1.414965E2,2.2843593E2,1.4202724E2,1.5586577E2,5.7734753E2,2.1791374E2,4.5594046E2,6.63589E2,4.017711E2,1.7557645E2,1.9039665E2,2.6554382E2,4.7469022E2,1.888988E2,2.2935103E2,1.7242006E2,1.8480153E2,2.898887E2],"tree_param":{"num_deleted":"0","num_feature":"154","num_nodes":"37","size_leaf_vector":"1"}},{"base_weights":[8.697805E-3,-1.833553E-1,9.405562E-2,-8.098141E-3,-1.2981537E-1,3.9578423E-2,2.6798344E-1,-1.7550753E-1,-7.335151E-2,1.0176593E-2,9.262519E-2,4.330669E-3,3.2897106E-1,-3.3488842E-3,-5.2544153E-3,-2.4779495E-3,-7.214173E-4,-2.0090498E-2,4.2305462E-2,6.737409E-2,4.3485155E-3,6.2678903E-3,9.094488E-3,4.4638777E-4,-4.5826253E-2,6.409538E-2,-1.8610446E-4,2.5506204E-3,5.2618445E-4,-2.438106E-3,1.07258995E-4,5.9231283E-4,2.4627424E-3],"categories":[],"categories_nodes":[],"categories_segments":[],"categories_sizes":[],"default_left":[0,0,0,0,0,0,0,0,0,0,0,0,0,0,0,0,0,0,0,0,0,0,0,0,0,0,0,0,0,0,0,0,0],"id":25,"left_children":[1,3,5,-1,7,9,11,13,15,17,19,-1,21,-1,-1,-1,-1,23,25,27,-1,-1,-1,-1,29,31,-1,-1,-1,-1,-1,-1,-1],"loss_changes":[5.869598E1,9.305359E0,2.3460482E1,0E0,2.0989132E0,2.9347765E0,3.0051117E0,6.7699814E-1,4.820037E-1,1.1855321E0,1.5177331E0,0E0,1.1377869E0,0E0,0E0,0E0,0E0,6.292033E-1,6.530545E-1,9.46954E-1,0E0,0E0,0E0,0E0,1.0982344E0,6.322079E-1,0E0,0E0,0E0,0E0,0E0,0E0,0E0],"parents":[2147483647,0,0,1,1,2,2,4,4,5,5,6,6,7,7,8,8,9,9,10,10,12,12,17,17,18,18,19,19,24,24,25,25],"right_children":[2,4,6,-1,8,10,12,14,16,18,20,-1,22,-1,-1,-1,-1,24,26,28,-1,-1,-1,-1,30,32,-1,-1,-1,-1,-1,-1,-1],"split_conditions":[9.25E0,4.5E0,1.78E1,-8.098141E-3,8.1E0,1.4333333E1,1.975E1,1.9E1,1E1,1.2E1,1E0,4.330669E-3,2.0066668E1,-3.3488842E-3,-5.2544153E-3,-2.4779495E-3,-7.214173E-4,1E0,1.325E1,1.97E2,4.3485155E-3,6.2678903E-3,9.094488E-3,4.4638777E-4,1.0266666E1,1.195122E1,-1.8610446E-4,2.5506204E-3,5.2618445E-4,-2.438106E-3,1.07258995E-4,5.9231283E-4,2.4627424E-3],"split_indices":[131,131,133,0,142,131,133,141,134,133,148,0,134,0,0,0,0,141,135,153,0,0,0,0,142,136,0,0,0,0,0,0,0],"split_type":[0,0,0,0,0,0,0,0,0,0,0,0,0,0,0,0,0,0,0,0,0,0,0,0,0,0,0,0,0,0,0,0,0],"sum_hessian":[3.5808894E3,1.1014026E3,2.4794868E3,2.771973E2,8.2420526E2,1.8886552E3,5.908316E2,4.5440338E2,3.6980188E2,1.2165107E3,6.721444E2,2.4761758E2,3.4321405E2,2.637165E2,1.906869E2,2.121974E2,1.5760448E2,6.2471344E2,5.9179736E2,5.2726196E2,1.4488243E2,1.5976683E2,1.834472E2,2.4692398E2,3.7778943E2,4.1405276E2,1.7774461E2,2.7706302E2,2.5019894E2,1.778892E2,1.9990024E2,2.1069374E2,2.0335901E2],"tree_param":{"num_deleted":"0","num_feature":"154","num_nodes":"33","size_leaf_vector":"1"}},{"base_weights":[7.5484235E-3,-9.537408E-2,1.5923686E-1,-3.0297306E-1,-4.5441024E-2,1.0848994E-1,2.7269775E-1,-9.762264E-3,-5.773253E-3,-1.2864137E-1,-1.697195E-2,8.7666176E-2,4.6358434E-3,2.3923436E-1,7.850046E-3,-4.688487E-3,-9.423307E-2,-7.1022235E-2,8.14736E-3,5.0813787E-2,1.416145E-1,6.6854595E-3,4.581295E-3,-3.0615348E-3,-1.3456849E-3,-2.463814E-3,-1.7950416E-4,2.9769553E-2,-1.7490872E-3,-7.4293035E-5,2.191284E-3,2.583491E-3,4.210306E-3,2.1483176E-3,-8.45394E-4,-1.3719407E-3,6.866906E-4],"categories":[],"categories_nodes":[],"categories_segments":[],"categories_sizes":[],"default_left":[0,0,0,0,0,0,0,0,0,0,0,0,0,0,0,0,0,0,0,0,0,0,0,0,0,0,0,0,0,0,0,0,0,0,0,0,0],"id":26,"left_children":[1,3,5,7,9,11,13,-1,-1,15,17,19,-1,21,-1,-1,23,25,27,29,31,-1,-1,-1,-1,-1,-1,33,-1,-1,-1,-1,-1,-1,35,-1,-1],"loss_changes":[5.599592E1,2.2105003E1,8.305977E0,2.5958557E0,4.0642323E0,1.791707E0,8.134308E-1,0E0,0E0,1.0134096E0,1.7506287E0,1.5908732E0,0E0,5.100708E-1,0E0,0E0,3.653469E-1,8.4531236E-1,1.5485636E0,1.097596E0,3.534794E-1,0E0,0E0,0E0,0E0,0E0,0E0,1.3052535E0,0E0,0E0,0E0,0E0,0E0,0E0,7.890929E-1,0E0,0E0],"parents":[2147483647,0,0,1,1,2,2,3,3,4,4,5,5,6,6,9,9,10,10,11,11,13,13,16,16,17,17,18,18,19,19,20,20,27,27,34,34],"right_children":[2,4,6,8,10,12,14,-1,-1,16,18,20,-1,22,-1,-1,24,26,28,30,32,-1,-1,-1,-1,-1,-1,34,-1,-1,-1,-1,-1,-1,36,-1,-1],"split_conditions":[1.34E1,6.0526314E0,1.8142857E1,3.625E0,8.125E0,1.7333334E1,1.6E1,-9.762264E-3,-5.773253E-3,8.142858E0,9.642858E0,1.3857142E1,4.6358434E-3,1.6222221E1,7.850046E-3,-4.688487E-3,9.882353E0,3E0,1E0,1.4090909E1,1.62E1,6.6854595E-3,4.581295E-3,-3.0615348E-3,-1.3456849E-3,-2.463814E-3,-1.7950416E-4,1.02E1,-1.7490872E-3,-7.4293035E-5,2.191284E-3,2.583491E-3,4.210306E-3,2.1483176E-3,1.14E1,-1.3719407E-3,6.866906E-4],"split_indices":[133,142,142,142,132,135,140,0,0,135,136,136,0,139,0,0,136,140,8,132,133,0,0,0,0,0,0,133,0,0,0,0,0,0,133,0,0],"split_type":[0,0,0,0,0,0,0,0,0,0,0,0,0,0,0,0,0,0,0,0,0,0,0,0,0,0,0,0,0,0,0,0,0,0,0,0,0],"sum_hessian":[3.586067E3,2.1360571E3,1.4500099E3,4.136556E2,1.7224015E3,1.0026733E3,4.4733658E2,1.4428575E2,2.6936984E2,4.3807138E2,1.2843301E3,8.107549E2,1.9191838E2,2.8670312E2,1.6063344E2,1.4402733E2,2.9404404E2,4.0879132E2,8.755388E2,4.82984E2,3.2777087E2,1.4603133E2,1.4067181E2,1.5010713E2,1.4393692E2,2.6762762E2,1.411637E2,6.939727E2,1.8156607E2,2.0961473E2,2.733693E2,1.7455893E2,1.5321196E2,2.3306944E2,4.609033E2,1.5941907E2,3.0148422E2],"tree_param":{"num_deleted":"0","num_feature":"154","num_nodes":"37","size_leaf_vector":"1"}},{"base_weights":[-9.742848E-3,-1.8328322E-1,8.476729E-2,-3.1502283E-1,-1.3638496E-1,1.7790018E-2,2.0677082E-1,-9.2251925E-3,-6.027208E-3,-1.9123766E-1,-1.01556696E-1,-2.59782E-2,6.273261E-2,2.150869E-3,2.4691135E-1,-5.148527E-3,-3.6645054E-3,-1.3772082E-1,-9.275723E-4,4.501536E-3,-2.8339988E-3,-2.0891699E-5,8.189571E-2,2.1752542E-1,8.106546E-3,-2.431655E-3,-4.4693802E-3,3.3056963E-2,-1.4361993E-3,4.982092E-2,3.3469354E-3,4.066177E-3,6.0650175E-3,-1.975914E-4,2.3896375E-3,3.290192E-3,-1.0277587E-4],"categories":[],"categories_nodes":[],"categories_segments":[],"categories_sizes":[],"default_left":[0,0,0,0,0,0,0,0,0,0,0,0,0,0,0,0,0,0,0,0,0,0,0,0,0,0,0,0,0,0,0,0,0,0,0,0,0],"id":27,"left_children":[1,3,5,7,9,11,13,-1,-1,15,17,19,21,-1,23,-1,-1,25,-1,27,-1,-1,29,31,-1,-1,-1,33,-1,35,-1,-1,-1,-1,-1,-1,-1],"loss_changes":[6.0042557E1,7.9236107E0,1.9336195E1,1.4479408E0,1.7871609E0,3.0141468E0,3.8663635E0,0E0,0E0,3.0976105E-1,1.298327E0,2.2238824E0,9.3052816E-1,0E0,1.6806221E0,0E0,0E0,6.261287E-1,0E0,1.0828468E0,0E0,0E0,1.0901337E0,7.946491E-1,0E0,0E0,0E0,1.1533786E0,0E0,1.8479795E0,0E0,0E0,0E0,0E0,0E0,0E0,0E0],"parents":[2147483647,0,0,1,1,2,2,3,3,4,4,5,5,6,6,9,9,10,10,11,11,12,12,14,14,17,17,19,19,22,22,23,23,27,27,29,29],"right_children":[2,4,6,8,10,12,14,-1,-1,16,18,20,22,-1,24,-1,-1,26,-1,28,-1,-1,30,32,-1,-1,-1,34,-1,36,-1,-1,-1,-1,-1,-1,-1],"split_conditions":[1E1,5.0666666E0,1.62E1,5.8691587E0,7.6666665E0,1.2625E1,9E0,-9.2251925E-3,-6.027208E-3,2.32E2,1.1E1,1.8E1,7E0,2.150869E-3,1.7E1,-5.148527E-3,-3.6645054E-3,8.5E0,-9.275723E-4,2.73E2,-2.8339988E-3,-2.0891699E-5,1.4666667E1,1.4625E1,8.106546E-3,-2.431655E-3,-4.4693802E-3,1.58E2,-1.4361993E-3,1.3666667E1,3.3469354E-3,4.066177E-3,6.0650175E-3,-1.975914E-4,2.3896375E-3,3.290192E-3,-1.0277587E-4],"split_indices":[131,132,131,139,132,132,5,0,0,153,136,3,5,0,140,0,0,136,0,153,0,0,131,136,0,0,0,153,0,132,0,0,0,0,0,0,0],"split_type":[0,0,0,0,0,0,0,0,0,0,0,0,0,0,0,0,0,0,0,0,0,0,0,0,0,0,0,0,0,0,0,0,0,0,0,0,0],"sum_hessian":[3.6600132E3,1.2908264E3,2.3691868E3,3.3814685E2,9.5267957E2,1.5301494E3,8.390374E2,1.5026125E2,1.8788562E2,3.6862808E2,5.840515E2,7.7402075E2,7.561286E2,2.165746E2,6.224628E2,2.1236873E2,1.5625934E2,3.685514E2,2.155001E2,5.832932E2,1.9072751E2,1.7377563E2,5.8235297E2,4.7709583E2,1.4536697E2,2.200622E2,1.4848921E2,4.067444E2,1.7654883E2,3.7960938E2,2.0274362E2,2.1996126E2,2.5713455E2,2.517218E2,1.550226E2,1.4414796E2,2.3546141E2],"tree_param":{"num_deleted":"0","num_feature":"154","num_nodes":"37","size_leaf_vector":"1"}},{"base_weights":[-5.3033447E-3,-1.9596292E-1,7.947077E-2,-3.160548E-1,-1.4432585E-1,2.7867733E-2,2.3555611E-1,-9.150094E-3,-5.9863874E-3,-2.0065694E-1,-9.3465716E-2,1.3782233E-2,4.4562244E-3,1.9991678E-1,7.3442864E-3,-5.8994633E-3,-3.8004532E-3,-1.1095962E-3,-3.6092382E-3,-9.715029E-3,8.431611E-2,5.8433977E-3,4.116197E-3,-1.9571697E-3,1.1220137E-3,1.1919147E-3,3.3230588E-3,-1.993883E-2,5.407377E-2,2.9021673E-4,-1.3581658E-3,-8.58851E-5,2.4022919E-3],"categories":[],"categories_nodes":[],"categories_segments":[],"categories_sizes":[],"default_left":[0,0,0,0,0,0,0,0,0,0,0,0,0,0,0,0,0,0,0,0,0,0,0,0,0,0,0,0,0,0,0,0,0],"id":28,"left_children":[1,3,5,7,9,11,13,-1,-1,15,17,19,-1,21,-1,-1,-1,-1,-1,23,25,-1,-1,-1,27,-1,-1,29,31,-1,-1,-1,-1],"loss_changes":[5.819158E1,6.8191986E0,2.0037148E1,1.4029808E0,2.1895905E0,4.2087193E0,1.5855942E0,0E0,0E0,6.6738796E-1,1.1019349E0,2.8626347E0,0E0,4.6416473E-1,0E0,0E0,0E0,0E0,0E0,1.0293524E0,8.0066824E-1,0E0,0E0,0E0,1.2558908E0,0E0,0E0,9.713248E-1,8.883151E-1,0E0,0E0,0E0,0E0],"parents":[2147483647,0,0,1,1,2,2,3,3,4,4,5,5,6,6,9,9,10,10,11,11,13,13,19,19,20,20,24,24,27,27,28,28],"right_children":[2,4,6,8,10,12,14,-1,-1,16,18,20,-1,22,-1,-1,-1,-1,-1,24,26,-1,-1,-1,28,-1,-1,30,32,-1,-1,-1,-1],"split_conditions":[9.25E0,5E0,1.74E1,3.2E0,7.25E0,1.2E1,2.0066668E1,-9.150094E-3,-5.9863874E-3,7.730769E0,1.8E1,1.46E1,4.4562244E-3,1.5857142E1,7.3442864E-3,-5.8994633E-3,-3.8004532E-3,-1.1095962E-3,-3.6092382E-3,7.6666665E0,1E0,5.8433977E-3,4.116197E-3,-1.9571697E-3,1.2E1,1.1919147E-3,3.3230588E-3,2.07E2,1.125E1,2.9021673E-4,-1.3581658E-3,-8.58851E-5,2.4022919E-3],"split_indices":[133,133,133,133,133,140,134,0,0,136,3,133,0,139,0,0,0,0,0,136,6,0,0,0,3,0,0,153,133,0,0,0,0],"split_type":[0,0,0,0,0,0,0,0,0,0,0,0,0,0,0,0,0,0,0,0,0,0,0,0,0,0,0,0,0,0,0,0,0],"sum_hessian":[3.5993445E3,1.1081705E3,2.491174E3,3.3245026E2,7.757203E2,1.8728037E3,6.183702E2,1.5617406E2,1.7627618E2,3.6693866E2,4.087816E2,1.7222931E3,1.5051065E2,4.1977847E2,1.9859174E2,1.6463983E2,2.0229881E2,2.2948415E2,1.7929744E2,1.2908389E3,4.3145425E2,1.4813045E2,2.71648E2,1.6813809E2,1.1227008E3,2.6993756E2,1.6151671E2,8.0182855E2,3.208722E2,4.295457E2,3.7228287E2,1.4373398E2,1.7713821E2],"tree_param":{"num_deleted":"0","num_feature":"154","num_nodes":"33","size_leaf_vector":"1"}},{"base_weights":[-6.869064E-4,-1.4766033E-1,1.1357846E-1,-3.1990695E-1,-9.926182E-2,4.8166156E-2,2.4148086E-1,-9.893398E-3,-5.7358635E-3,-1.3078602E-1,-2.3436103E-2,-5.6781364E-3,8.468773E-2,1.9485025E-1,3.0801928E-1,-5.165324E-3,-1.0999759E-1,2.771165E-4,-1.8954368E-3,-3.1928938E-2,1.6286961E-3,4.097601E-3,6.377951E-2,3.2072482E-3,5.8612926E-3,6.722344E-3,7.845686E-3,-1.3310215E-1,-4.5750994E-4,-1.412745E-3,1.243453E-4,4.1443996E-2,3.31121E-3,-1.625565E-1,-1.9223398E-3,-6.901486E-4,7.298827E-2,-3.1320055E-3,-4.7682547E-3,4.6999028E-4,2.987138E-3],"categories":[],"categories_nodes":[],"categories_segments":[],"categories_sizes":[],"default_left":[0,0,0,0,0,0,0,0,0,0,0,0,0,0,0,0,0,0,0,0,0,0,0,0,0,0,0,0,0,0,0,0,0,0,0,0,0,0,0,0,0],"id":29,"left_children":[1,3,5,7,9,11,13,-1,-1,15,17,19,21,23,25,-1,27,-1,-1,29,-1,-1,31,-1,-1,-1,-1,33,-1,-1,-1,35,-1,37,-1,-1,39,-1,-1,-1,-1],"loss_changes":[6.0949135E1,1.3188419E1,1.7046173E1,2.565216E0,2.9474869E0,2.6656477E0,2.0820694E0,0E0,0E0,1.5523453E0,7.342494E-1,1.0617809E0,1.4639363E0,1.230216E0,8.499527E-2,0E0,1.46665E0,0E0,0E0,4.227044E-1,0E0,0E0,1.0901954E0,0E0,0E0,0E0,0E0,8.338318E-1,0E0,0E0,0E0,1.1320945E0,0E0,3.827572E-1,0E0,0E0,9.7599745E-1,0E0,0E0,0E0,0E0],"parents":[2147483647,0,0,1,1,2,2,3,3,4,4,5,5,6,6,9,9,10,10,11,11,12,12,13,13,14,14,16,16,19,19,22,22,27,27,31,31,33,33,36,36],"right_children":[2,4,6,8,10,12,14,-1,-1,16,18,20,22,24,26,-1,28,-1,-1,30,-1,-1,32,-1,-1,-1,-1,34,-1,-1,-1,36,-1,38,-1,-1,40,-1,-1,-1,-1],"split_conditions":[1.12E1,5E0,1.65E1,6.1666665E0,1E1,1.2625E1,1.9928572E1,-9.893398E-3,-5.7358635E-3,6.1E0,1.16E1,1.45E1,9.8E0,1.7666666E1,2.1428572E1,-5.165324E-3,6E0,2.771165E-4,-1.8954368E-3,1.2470589E1,1.6286961E-3,4.097601E-3,1E0,3.2072482E-3,5.8612926E-3,6.722344E-3,7.845686E-3,1.1166667E1,-4.5750994E-4,-1.412745E-3,1.243453E-4,1.22E2,3.31121E-3,9.033334E0,-1.9223398E-3,-6.901486E-4,1.5E1,-3.1320055E-3,-4.7682547E-3,4.6999028E-4,2.987138E-3],"split_indices":[133,133,142,139,131,132,142,0,0,134,136,136,136,131,142,0,138,0,0,139,0,0,152,0,0,0,0,136,0,0,0,153,0,134,0,0,132,0,0,0,0],"split_type":[0,0,0,0,0,0,0,0,0,0,0,0,0,0,0,0,0,0,0,0,0,0,0,0,0,0,0,0,0,0,0,0,0,0,0,0,0,0,0,0,0],"sum_hessian":[3.6288237E3,1.5876371E3,2.0411866E3,3.4764996E2,1.2399872E3,1.3511427E3,6.9004395E2,1.5287634E2,1.9477362E2,8.7481335E2,3.651738E2,5.4491925E2,8.0622345E2,4.0687366E2,2.8317026E2,1.669426E2,7.078707E2,2.2421956E2,1.4095425E2,4.0400177E2,1.4091747E2,1.5311331E2,6.5311017E2,1.9248782E2,2.1438583E2,1.42399E2,1.4077127E2,5.63152E2,1.4471877E2,2.3296754E2,1.7103423E2,5.060908E2,1.4701935E2,3.5783057E2,2.0532141E2,1.5525565E2,3.5083514E2,2.0293881E2,1.5489174E2,1.7657213E2,1.7426303E2],"tree_param":{"num_deleted":"0","num_feature":"154","num_nodes":"41","size_leaf_vector":"1"}},{"base_weights":[-2.7069746E-4,-1.3284919E-1,1.2659192E-1,-2.9469967E-1,-8.335663E-2,6.585779E-2,2.501854E-1,-9.465901E-3,-5.5313595E-3,-5.216466E-3,-6.236347E-2,2.9045478E-2,1.2022054E-1,2.1778375E-1,8.275723E-3,5.506048E-3,-9.59489E-2,-6.4806145E-4,4.3224055E-2,3.8495837E-3,1.0210126E-1,6.403111E-3,4.229482E-3,7.5543387E-4,-8.425157E-4,-1.1236197E-1,-6.224412E-4,2.5358584E-2,2.2883422E-3,1.0557607E-3,3.4434346E-3,-1.5283051E-3,-1.3060886E-1,1.073338E-3,-9.1300164E-5,-4.445506E-3,-2.4600492E-3],"categories":[],"categories_nodes":[],"categories_segments":[],"categories_sizes":[],"default_left":[0,0,0,0,0,0,0,0,0,0,0,0,0,0,0,0,0,0,0,0,0,0,0,0,0,0,0,0,0,0,0,0,0,0,0,0,0],"id":30,"left_children":[1,3,5,7,9,11,13,-1,-1,-1,15,17,19,21,-1,23,25,-1,27,-1,29,-1,-1,-1,-1,31,-1,33,-1,-1,-1,-1,35,-1,-1,-1,-1],"loss_changes":[5.947649E1,1.3811718E1,1.3525936E1,2.5202446E0,3.7794418E0,2.40937E0,1.8472595E0,0E0,0E0,0E0,2.6307292E0,5.8095205E-1,3.4514523E-1,8.7425804E-1,0E0,4.1168427E-1,8.6557865E-1,0E0,5.405823E-1,0E0,8.366723E-1,0E0,0E0,0E0,0E0,5.210824E-1,0E0,2.5916198E-1,0E0,0E0,0E0,0E0,6.5165854E-1,0E0,0E0,0E0,0E0],"parents":[2147483647,0,0,1,1,2,2,3,3,4,4,5,5,6,6,10,10,11,11,12,12,13,13,15,15,16,16,18,18,20,20,25,25,27,27,32,32],"right_children":[2,4,6,8,10,12,14,-1,-1,-1,16,18,20,22,-1,24,26,-1,28,-1,30,-1,-1,-1,-1,32,-1,34,-1,-1,-1,-1,36,-1,-1,-1,-1],"split_conditions":[1.2E1,5.5E0,1.75E1,3.3333333E0,6.6666665E0,1.45E1,1.7E1,-9.465901E-3,-5.5313595E-3,-5.216466E-3,1E0,1.075E1,1.5333333E1,6E0,8.275723E-3,1E0,1.2E1,-6.4806145E-4,1.425E1,3.8495837E-3,1.6333334E1,6.403111E-3,4.229482E-3,7.5543387E-4,-8.425157E-4,8E0,-6.224412E-4,1E0,2.2883422E-3,1.0557607E-3,3.4434346E-3,-1.5283051E-3,9.166667E0,1.073338E-3,-9.1300164E-5,-4.445506E-3,-2.4600492E-3],"split_indices":[133,133,133,132,132,132,140,0,0,0,141,132,132,140,0,6,138,0,133,0,132,0,0,0,0,133,0,141,0,0,0,0,132,0,0,0,0],"split_type":[0,0,0,0,0,0,0,0,0,0,0,0,0,0,0,0,0,0,0,0,0,0,0,0,0,0,0,0,0,0,0,0,0,0,0,0,0],"sum_hessian":[3.535988E3,1.7294514E3,1.8065367E3,4.0439194E2,1.3250594E3,1.2119753E3,5.945614E2,1.4772728E2,2.5666467E2,1.7528671E2,1.1497727E3,7.238903E2,4.8808496E2,4.494107E2,1.4515068E2,3.7959293E2,7.701798E2,1.4385423E2,5.8003613E2,1.4417848E2,3.439065E2,1.9013539E2,2.592753E2,2.3269724E2,1.468957E2,6.2202527E2,1.4815448E2,4.3629938E2,1.4373676E2,1.4895695E2,1.9494952E2,1.7356355E2,4.4846173E2,2.6124237E2,1.75057E2,1.413027E2,3.0715903E2],"tree_param":{"num_deleted":"0","num_feature":"154","num_nodes":"37","size_leaf_vector":"1"}},{"base_weights":[-8.280853E-3,-1.176156E-1,1.15165636E-1,-2.8096694E-1,-6.715055E-2,5.6092672E-2,2.3066223E-1,-1.0085157E-2,-2.1089384E-1,-1.0036322E-1,4.1416742E-2,2.8529568E-2,1.3585143E-1,2.7167174E-1,2.6625227E-3,-5.751095E-3,-4.3218033E-3,-7.973039E-2,-4.6700863E-3,2.9360272E-3,-8.1272435E-4,4.7648188E-2,-1.4995586E-3,2.3876652E-3,4.052549E-3,5.514606E-3,8.051138E-3,-1.24739006E-1,-5.810471E-2,1.9293178E-2,2.4427755E-3,-4.0186737E-3,-1.7863421E-3,-2.3497934E-3,-2.4456348E-2,1.548867E-3,-2.3197045E-4,-1.4099532E-3,5.38712E-4],"categories":[],"categories_nodes":[],"categories_segments":[],"categories_sizes":[],"default_left":[0,0,0,0,0,0,0,0,0,0,0,0,0,0,0,0,0,0,0,0,0,0,0,0,0,0,0,0,0,0,0,0,0,0,0,0,0,0,0],"id":31,"left_children":[1,3,5,7,9,11,13,-1,15,17,19,21,23,25,-1,-1,-1,27,-1,-1,-1,29,-1,-1,-1,-1,-1,31,33,35,-1,-1,-1,-1,37,-1,-1,-1,-1],"loss_changes":[4.8628063E1,1.5715273E1,1.1510689E1,4.5023155E0,5.2735267E0,2.4443634E0,2.7280083E0,0E0,2.2686577E-1,2.206812E0,2.1465194E0,1.4625778E0,3.237605E-1,1.0544815E0,0E0,0E0,0E0,8.790455E-1,0E0,0E0,0E0,1.0747474E0,0E0,0E0,0E0,0E0,0E0,6.340246E-1,8.5309434E-1,6.216842E-1,0E0,0E0,0E0,0E0,5.7714325E-1,0E0,0E0,0E0,0E0],"parents":[2147483647,0,0,1,1,2,2,3,3,4,4,5,5,6,6,8,8,9,9,10,10,11,11,12,12,13,13,17,17,21,21,27,27,28,28,29,29,34,34],"right_children":[2,4,6,8,10,12,14,-1,16,18,20,22,24,26,-1,-1,-1,28,-1,-1,-1,30,-1,-1,-1,-1,-1,32,34,36,-1,-1,-1,-1,38,-1,-1,-1,-1],"split_conditions":[1.2294118E1,6.3333335E0,1.7444445E1,2E0,5E0,1.58E1,1E0,-1.0085157E-2,4.7E0,1E0,4E0,1E0,1.5966666E1,1.9966667E1,2.6625227E-3,-5.751095E-3,-4.3218033E-3,8.5E0,-4.6700863E-3,2.9360272E-3,-8.1272435E-4,1E0,-1.4995586E-3,2.3876652E-3,4.052549E-3,5.514606E-3,8.051138E-3,1.6E1,4E0,1.3615385E1,2.4427755E-3,-4.0186737E-3,-1.7863421E-3,-2.3497934E-3,1.0833333E1,1.548867E-3,-2.3197045E-4,-1.4099532E-3,5.38712E-4],"split_indices":[142,142,142,5,140,132,149,0,132,4,3,149,134,134,0,0,0,132,0,0,0,6,0,0,0,0,0,3,3,142,0,0,0,0,142,0,0,0,0],"split_type":[0,0,0,0,0,0,0,0,0,0,0,0,0,0,0,0,0,0,0,0,0,0,0,0,0,0,0,0,0,0,0,0,0,0,0,0,0,0,0],"sum_hessian":[3.6026753E3,1.9109994E3,1.6916759E3,4.5043558E2,1.4605638E3,1.1199288E3,5.717471E2,1.46085E2,3.043506E2,1.119177E3,3.4138687E2,8.3338934E2,2.8653955E2,4.2371255E2,1.4803455E2,1.407691E2,1.6358147E2,9.237568E2,1.954202E2,1.639489E2,1.7743796E2,6.9083124E2,1.4255804E2,1.4564464E2,1.408949E2,2.717914E2,1.5192114E2,2.9805365E2,6.257031E2,4.5868317E2,2.3214812E2,1.545305E2,1.4352316E2,2.7996436E2,3.4573877E2,1.7876358E2,2.7991956E2,1.9958699E2,1.4615176E2],"tree_param":{"num_deleted":"0","num_feature":"154","num_nodes":"39","size_leaf_vector":"1"}},{"base_weights":[-7.3525E-4,-1.2431053E-1,1.2904467E-1,-3.1407046E-1,-8.180823E-2,7.384459E-2,2.5789052E-1,-6.143256E-3,-8.945229E-3,-1.4152662E-1,-4.169943E-2,-1.10066656E-4,9.240389E-2,2.164818E-1,8.374149E-3,-8.999492E-2,-1.9034545E-1,-1.1435134E-2,-6.914735E-2,6.708249E-2,1.4749129E-1,3.946923E-3,6.35861E-3,-2.6255157E-3,-1.5906757E-3,-5.407783E-3,-3.5068092E-3,-2.7908492E-3,1.0930268E-3,4.04276E-5,-1.0058385E-1,3.2028172E-2,9.2537515E-2,4.561047E-3,2.2655034E-3,-1.5982843E-3,-3.2958698E-3,3.8571152E-4,1.117643E-3,2.71671E-3,1.2836859E-3],"categories":[],"categories_nodes":[],"categories_segments":[],"categories_sizes":[],"default_left":[0,0,0,0,0,0,0,0,0,0,0,0,0,0,0,0,0,0,0,0,0,0,0,0,0,0,0,0,0,0,0,0,0,0,0,0,0,0,0,0,0],"id":32,"left_children":[1,3,5,7,9,11,13,-1,-1,15,17,-1,19,21,-1,23,25,27,29,31,33,-1,-1,-1,-1,-1,-1,-1,-1,-1,35,37,39,-1,-1,-1,-1,-1,-1,-1,-1],"loss_changes":[5.6468178E1,1.4505428E1,1.2174488E1,1.0702858E0,3.5116892E0,1.7615113E0,1.9731674E0,0E0,0E0,1.4561024E0,7.250619E-1,0E0,1.3345776E0,8.833351E-1,0E0,1.18056536E-1,4.430046E-1,2.5961633E0,1.0381277E0,5.8309007E-1,6.8169546E-1,0E0,0E0,0E0,0E0,0E0,0E0,0E0,0E0,0E0,3.8669991E-1,6.0807884E-2,3.095913E-1,0E0,0E0,0E0,0E0,0E0,0E0,0E0,0E0],"parents":[2147483647,0,0,1,1,2,2,3,3,4,4,5,5,6,6,9,9,10,10,12,12,13,13,15,15,16,16,17,17,18,18,19,19,20,20,30,30,31,31,32,32],"right_children":[2,4,6,8,10,12,14,-1,-1,16,18,-1,20,22,-1,24,26,28,30,32,34,-1,-1,-1,-1,-1,-1,-1,-1,-1,36,38,40,-1,-1,-1,-1,-1,-1,-1,-1],"split_conditions":[1.22E1,5.4117646E0,1.7571428E1,1E0,8.9E0,6E0,2.125E1,-6.143256E-3,-8.945229E-3,2.18E2,1.83E2,-1.10066656E-4,1.54E1,1.1E1,8.374149E-3,9.882353E0,5E0,9.545455E0,8.6875E0,1.2083333E1,1.78E2,3.946923E-3,6.35861E-3,-2.6255157E-3,-1.5906757E-3,-5.407783E-3,-3.5068092E-3,-2.7908492E-3,1.0930268E-3,4.04276E-5,1.0818182E1,1.84E2,2.24E2,4.561047E-3,2.2655034E-3,-1.5982843E-3,-3.2958698E-3,3.8571152E-4,1.117643E-3,2.71671E-3,1.2836859E-3],"split_indices":[133,142,142,145,132,5,142,0,0,153,153,0,142,140,0,136,5,136,136,136,153,0,0,0,0,0,0,0,0,0,132,153,153,0,0,0,0,0,0,0,0],"split_type":[0,0,0,0,0,0,0,0,0,0,0,0,0,0,0,0,0,0,0,0,0,0,0,0,0,0,0,0,0,0,0,0,0,0,0,0,0,0,0,0,0],"sum_hessian":[3.5208337E3,1.8039523E3,1.7168816E3,3.2954175E2,1.4744105E3,1.2026272E3,5.142543E2,1.7873294E2,1.508088E2,5.912288E2,8.8318164E2,2.2889088E2,9.737364E2,3.600843E2,1.5417E2,2.8881476E2,3.024141E2,4.2195178E2,4.6122983E2,6.685669E2,3.051695E2,1.8543123E2,1.7465306E2,1.4804776E2,1.40767E2,1.5745354E2,1.4496056E2,1.4877554E2,2.7317627E2,1.4073099E2,3.2049884E2,2.831035E2,3.8546338E2,1.617796E2,1.433899E2,1.7430482E2,1.4619402E2,1.4255762E2,1.4054588E2,2.421076E2,1.4335577E2],"tree_param":{"num_deleted":"0","num_feature":"154","num_nodes":"41","size_leaf_vector":"1"}},{"base_weights":[-2.876011E-3,-1.6262591E-1,8.149427E-2,-2.9609767E-1,-1.1387367E-1,2.9949503E-2,2.3509942E-1,-8.584582E-3,-5.640305E-3,-1.6026898E-1,-6.7585744E-2,1.5161292E-2,3.600346E-3,1.9231334E-1,6.522379E-3,-1.4003621E-1,-4.8131514E-3,-3.1299345E-4,-2.5208844E-3,-4.345351E-2,5.596503E-2,3.7676522E-3,5.3093303E-3,-3.835029E-3,-2.7867113E-3,-1.3908004E-2,-2.5274842E-3,2.9707538E-2,3.213172E-3,-1.7262999E-3,7.042527E-4,4.9906477E-2,-7.7958946E-4,5.5961043E-4,2.2140704E-3],"categories":[],"categories_nodes":[],"categories_segments":[],"categories_sizes":[],"default_left":[0,0,0,0,0,0,0,0,0,0,0,0,0,0,0,0,0,0,0,0,0,0,0,0,0,0,0,0,0,0,0,0,0,0,0],"id":33,"left_children":[1,3,5,7,9,11,13,-1,-1,15,17,19,-1,21,-1,23,-1,-1,-1,25,27,-1,-1,-1,-1,29,-1,31,-1,-1,-1,33,-1,-1,-1],"loss_changes":[4.8762493E1,8.090801E0,1.8709206E1,1.2128525E0,1.9434395E0,3.1834993E0,9.7226715E-1,0E0,0E0,3.5835266E-1,9.6028304E-1,3.7854168E0,0E0,2.6327515E-1,0E0,1.2161255E-1,0E0,0E0,0E0,1.1996132E0,1.9377708E0,0E0,0E0,0E0,0E0,1.1467482E0,0E0,8.922934E-1,0E0,0E0,0E0,5.9846926E-1,0E0,0E0,0E0],"parents":[2147483647,0,0,1,1,2,2,3,3,4,4,5,5,6,6,9,9,10,10,11,11,13,13,15,15,19,19,20,20,25,25,27,27,31,31],"right_children":[2,4,6,8,10,12,14,-1,-1,16,18,20,-1,22,-1,24,-1,-1,-1,26,28,-1,-1,-1,-1,30,-1,32,-1,-1,-1,34,-1,-1,-1],"split_conditions":[1E1,5.0666666E0,1.7666666E1,3.3333333E0,7.6666665E0,1.1E1,1.9454546E1,-8.584582E-3,-5.640305E-3,1E0,2E0,1.22E1,3.600346E-3,1E1,6.522379E-3,2E0,-4.8131514E-3,-3.1299345E-4,-2.5208844E-3,3E0,1E0,3.7676522E-3,5.3093303E-3,-3.835029E-3,-2.7867113E-3,1.14E1,-2.5274842E-3,1E0,3.213172E-3,-1.7262999E-3,7.042527E-4,1.4636364E1,-7.7958946E-4,5.5961043E-4,2.2140704E-3],"split_indices":[131,132,131,132,131,140,132,0,0,145,141,132,0,140,0,138,0,0,0,141,148,0,0,0,0,131,0,149,0,0,0,132,0,0,0],"split_type":[0,0,0,0,0,0,0,0,0,0,0,0,0,0,0,0,0,0,0,0,0,0,0,0,0,0,0,0,0,0,0,0,0,0,0],"sum_hessian":[3.6170667E3,1.2505E3,2.3665667E3,3.3384692E2,9.16653E2,1.7725604E3,5.940063E2,1.5420616E2,1.7964078E2,4.565299E2,4.601231E2,1.5819823E3,1.9057812E2,2.9005154E2,3.0395474E2,3.1249884E2,1.4403107E2,1.9309975E2,2.6702338E2,6.4820807E2,9.337743E2,1.4423422E2,1.4581734E2,1.5484967E2,1.5764917E2,4.431772E2,2.0503087E2,7.03607E2,2.3016728E2,1.8945877E2,2.5371843E2,5.3334033E2,1.7026666E2,3.344824E2,1.9885796E2],"tree_param":{"num_deleted":"0","num_feature":"154","num_nodes":"35","size_leaf_vector":"1"}},{"base_weights":[5.72505E-3,-1.6907696E-1,8.0715016E-2,-9.391673E-3,-1.3229625E-1,1.9840233E-2,1.9554791E-1,-2.0490558E-1,-7.638892E-2,-2.2053178E-3,3.4654878E-2,1.4138983E-1,2.4565127E-1,-4.134708E-3,-6.0736826E-3,-3.5829145E-2,-3.299777E-3,2.3247218E-3,6.834743E-2,2.730257E-3,4.276393E-3,4.837695E-3,6.869656E-3,-1.9257092E-3,4.485069E-5,1.1944644E-3,-1.99911E-2,3.1320147E-2,9.4908915E-2,-5.4901596E-2,1.0410831E-3,-7.7404536E-4,2.2223115E-3,2.983523E-3,1.0613579E-3,-2.7397077E-3,1.6699272E-5],"categories":[],"categories_nodes":[],"categories_segments":[],"categories_sizes":[],"default_left":[0,0,0,0,0,0,0,0,0,0,0,0,0,0,0,0,0,0,0,0,0,0,0,0,0,0,0,0,0,0,0,0,0,0,0,0,0],"id":34,"left_children":[1,3,5,-1,7,9,11,13,15,-1,17,19,21,-1,-1,23,-1,25,27,-1,-1,-1,-1,-1,-1,-1,29,31,33,35,-1,-1,-1,-1,-1,-1,-1],"loss_changes":[4.6683113E1,8.888128E0,1.7404488E1,0E0,3.7063503E0,2.7227116E0,2.2975807E0,5.743542E-1,1.3125286E0,0E0,1.5632187E0,3.9203072E-1,7.641754E-1,0E0,0E0,5.548336E-1,0E0,7.9556286E-1,6.7914844E-1,0E0,0E0,0E0,0E0,0E0,0E0,0E0,1.1235139E0,1.1924498E0,6.1777854E-1,1.1155567E0,0E0,0E0,0E0,0E0,0E0,0E0,0E0],"parents":[2147483647,0,0,1,1,2,2,4,4,5,5,6,6,7,7,8,8,10,10,11,11,12,12,15,15,17,17,18,18,26,26,27,27,28,28,29,29],"right_children":[2,4,6,-1,8,10,12,14,16,-1,18,20,22,-1,-1,24,-1,26,28,-1,-1,-1,-1,-1,-1,-1,30,32,34,36,-1,-1,-1,-1,-1,-1,-1],"split_conditions":[9.25E0,3.2E0,1.6E1,-9.391673E-3,7.16129E0,7.6666665E0,1.8041666E1,1E0,1E0,-2.2053178E-3,1.28E1,1.56E1,2.05E1,-4.134708E-3,-6.0736826E-3,8.416667E0,-3.299777E-3,1.0533334E1,1.2142858E1,2.730257E-3,4.276393E-3,4.837695E-3,6.869656E-3,-1.9257092E-3,4.485069E-5,1.1944644E-3,1E0,4E0,1.575E1,1.17E1,1.0410831E-3,-7.7404536E-4,2.2223115E-3,2.983523E-3,1.0613579E-3,-2.7397077E-3,1.6699272E-5],"split_indices":[133,133,133,0,142,136,142,145,6,0,133,136,133,0,0,134,0,134,136,0,0,0,0,0,0,0,6,3,136,142,0,0,0,0,0,0,0],"split_type":[0,0,0,0,0,0,0,0,0,0,0,0,0,0,0,0,0,0,0,0,0,0,0,0,0,0,0,0,0,0,0,0,0,0,0,0,0],"sum_hessian":[3.5618416E3,1.068837E3,2.4930044E3,1.4815045E2,9.2068665E2,1.6299694E3,8.6303503E2,3.9957904E2,5.211076E2,1.880438E2,1.4419257E3,4.159303E2,4.471047E2,2.5353352E2,1.4604552E2,3.1812012E2,2.0298749E2,7.375063E2,7.044194E2,2.5179518E2,1.6413512E2,2.3344559E2,2.1365912E2,1.4540727E2,1.7271283E2,2.3510507E2,5.0240118E2,2.9600317E2,4.0841617E2,3.2610568E2,1.762955E2,1.4546748E2,1.5053569E2,2.5049767E2,1.579185E2,1.5661452E2,1.6949117E2],"tree_param":{"num_deleted":"0","num_feature":"154","num_nodes":"37","size_leaf_vector":"1"}},{"base_weights":[3.5359508E-3,-1.18416116E-1,1.2176608E-1,-2.972833E-1,-7.965522E-2,7.8308776E-2,2.3316625E-1,-7.914102E-3,-6.139606E-3,-1.399063E-1,-3.7846472E-2,5.3970102E-2,1.3920829E-1,1.8518071E-1,7.2427774E-3,-4.3903696E-3,-9.996527E-2,-1.0256894E-2,-2.4945282E-3,1.2967946E-2,9.3373634E-2,4.7975346E-3,2.2289867E-3,5.1094485E-3,3.6637168E-3,-3.3910288E-3,-1.1853445E-3,-4.763371E-2,3.0746084E-2,-1.3536618E-3,4.967918E-2,3.1195846E-3,1.1636699E-3,1.7576721E-4,-2.44279E-3,1.8959909E-3,-4.2077337E-4,3.041671E-4,1.9502587E-3],"categories":[],"categories_nodes":[],"categories_segments":[],"categories_sizes":[],"default_left":[0,0,0,0,0,0,0,0,0,0,0,0,0,0,0,0,0,0,0,0,0,0,0,0,0,0,0,0,0,0,0,0,0,0,0,0,0,0,0],"id":35,"left_children":[1,3,5,7,9,11,13,-1,-1,15,17,19,21,23,-1,-1,25,27,-1,29,31,-1,-1,-1,-1,-1,-1,33,35,-1,37,-1,-1,-1,-1,-1,-1,-1,-1],"loss_changes":[5.061702E1,1.1935375E1,8.596472E0,3.5997772E-1,3.5589485E0,1.8809886E0,1.6868839E0,0E0,0E0,1.0244226E0,1.5520431E0,1.4722679E0,1.0102925E0,2.3909378E-1,0E0,0E0,6.5000176E-1,9.1751707E-1,0E0,1.1621132E0,7.729902E-1,0E0,0E0,0E0,0E0,0E0,0E0,9.7041965E-1,6.8568134E-1,0E0,3.4795535E-1,0E0,0E0,0E0,0E0,0E0,0E0,0E0,0E0],"parents":[2147483647,0,0,1,1,2,2,3,3,4,4,5,5,6,6,9,9,10,10,11,11,12,12,13,13,16,16,17,17,19,19,20,20,27,27,28,28,30,30],"right_children":[2,4,6,8,10,12,14,-1,-1,16,18,20,22,24,-1,-1,26,28,-1,30,32,-1,-1,-1,-1,-1,-1,34,36,-1,38,-1,-1,-1,-1,-1,-1,-1,-1],"split_conditions":[1.2E1,5E0,1.8333334E1,3.3333333E0,5E0,1.575E1,1.9966667E1,-7.914102E-3,-6.139606E-3,7.5666666E0,2.88E2,1.3857142E1,1.616E1,1.785E1,7.2427774E-3,-4.3903696E-3,9.166667E0,1.1815789E1,-2.4945282E-3,1.2E1,1.4766666E1,4.7975346E-3,2.2289867E-3,5.1094485E-3,3.6637168E-3,-3.3910288E-3,-1.1853445E-3,9.294821E0,1.1666667E1,-1.3536618E-3,1.1170732E1,3.1195846E-3,1.1636699E-3,1.7576721E-4,-2.44279E-3,1.8959909E-3,-4.2077337E-4,3.041671E-4,1.9502587E-3],"split_indices":[133,132,133,132,5,132,134,0,0,134,153,139,139,139,0,0,132,139,0,132,134,0,0,0,0,0,0,139,134,0,139,0,0,0,0,0,0,0,0],"split_type":[0,0,0,0,0,0,0,0,0,0,0,0,0,0,0,0,0,0,0,0,0,0,0,0,0,0,0,0,0,0,0,0,0,0,0,0,0,0,0],"sum_hessian":[3.5103708E3,1.7275425E3,1.7828284E3,3.0708496E2,1.4204575E3,1.2833203E3,4.9950806E2,1.5366827E2,1.5341667E2,5.807549E2,8.3970264E2,9.182617E2,3.6505865E2,3.0209668E2,1.974114E2,2.6994034E2,3.1081458E2,5.973246E2,2.4237808E2,4.513896E2,4.668721E2,1.5048128E2,2.145774E2,1.4847888E2,1.5361778E2,1.6521803E2,1.4559653E2,3.138323E2,2.8349225E2,1.540597E2,2.9732993E2,2.4849644E2,2.1837564E2,1.5669043E2,1.5714186E2,1.416163E2,1.4187596E2,1.414271E2,1.5590283E2],"tree_param":{"num_deleted":"0","num_feature":"154","num_nodes":"39","size_leaf_vector":"1"}},{"base_weights":[-3.9427113E-3,-1.4593436E-1,9.171635E-2,-2.643708E-1,-8.5029796E-2,4.6494085E-2,2.2834083E-1,-2.0279883E-1,-8.451716E-3,-3.6977476E-3,-6.753248E-2,-1.2810574E-2,7.48496E-2,2.5994048E-1,3.395864E-3,-5.897286E-3,-3.6725136E-3,-3.0779706E-3,-5.1425084E-2,-4.8434682E-2,1.8820257E-3,8.878347E-2,3.187737E-4,4.9128705E-3,6.9444636E-3,-2.795579E-2,-2.427385E-3,